{"learner":{"attributes":{"best_iteration":"16","best_score":"0.47453703703703703"},"feature_names":["open","high","low","close","pre_close","change","pct_chg","vol","amount","ann_date","grossprofit_margin","roe","roa","MA5","MA10","MA20","RSI"],"feature_types":["float","float","float","float","float","float","float","float","float","int","float","float","float","float","float","float","float"],"gradient_booster":{"model":{"gbtree_model_param":{"num_parallel_tree":"1","num_trees":"81"},"iteration_indptr":[0,3,6,9,12,15,18,21,24,27,30,33,36,39,42,45,48,51,54,57,60,63,66,69,72,75,78,81],"tree_info":[0,1,2,0,1,2,0,1,2,0,1,2,0,1,2,0,1,2,0,1,2,0,1,2,0,1,2,0,1,2,0,1,2,0,1,2,0,1,2,0,1,2,0,1,2,0,1,2,0,1,2,0,1,2,0,1,2,0,1,2,0,1,2,0,1,2,0,1,2,0,1,2,0,1,2,0,1,2,0,1,2],"trees":[{"base_weights":[-6.396006E-1,-2.3076928E-1,-6.457875E-1,-5.0769234E-1,9.836062E-2,-5.648061E-1,-6.5965587E-1,-2.5544848E-9,-6.2264156E-2,8.571428E-2,-2.44898E-1,-5.799044E-1,4.285714E-2,-6.926589E-2,-6.300671E-1,-5.1724143E-2,1.0344825E-2,-5.929204E-1,-8.1081115E-2,-2.9203546E-1,-6.408056E-1,-1.2000003E-2,-5.9940064E-1,4.285714E-2,-4.8000004E-2,-4.588236E-1,1.6216213E-1,-2.5544848E-9,-6.433544E-1,-1.2000003E-2,-6.0609143E-2,-8.108112E-3,-6.31579E-2,-1.2000003E-2,4.285714E-2,-5.069253E-2,-6.596624E-2],"categories":[],"categories_nodes":[],"categories_segments":[],"categories_sizes":[],"default_left":[0,0,0,0,0,0,0,0,0,0,0,0,0,0,0,0,0,0,0,0,0,0,0,0,0,0,0,0,0,0,0,0,0,0,0,0,0],"id":0,"left_children":[1,3,5,7,9,11,13,-1,-1,-1,15,17,-1,-1,19,-1,-1,21,23,25,27,-1,29,-1,-1,31,33,-1,35,-1,-1,-1,-1,-1,-1,-1,-1],"loss_changes":[1.7927246E0,1.2348045E0,4.7613525E-1,4.2148054E-1,1.9752426E0,2.0099945E0,1.8777466E-1,0E0,0E0,0E0,5.700211E-1,7.057991E-1,0E0,0E0,1.0764923E0,0E0,0E0,2.7437592E-1,1.0415444E0,1.025547E0,5.496826E-1,0E0,2.8402328E-1,0E0,0E0,5.651076E-1,3.6046332E-1,0E0,4.11438E-1,0E0,0E0,0E0,0E0,0E0,0E0,0E0,0E0],"parents":[2147483647,0,0,1,1,2,2,3,3,4,4,5,5,6,6,10,10,11,11,14,14,17,17,18,18,19,19,20,20,22,22,25,25,26,26,28,28],"right_children":[2,4,6,8,10,12,14,-1,-1,-1,16,18,-1,-1,20,-1,-1,22,24,26,28,-1,30,-1,-1,32,34,-1,36,-1,-1,-1,-1,-1,-1,-1,-1],"split_conditions":[6.84E0,2.8776978E1,7.86E0,-9E-2,3.2037037E1,7.76E0,1.1368E1,-2.5544848E-9,-6.2264156E-2,8.571428E-2,2.843822E5,3.9398744E5,4.285714E-2,-6.926589E-2,1.14605E1,-5.1724143E-2,1.0344825E-2,-1.81E0,6.270573E5,5.0512162E5,1.078E1,-1.2000003E-2,1.6201117E1,4.285714E-2,-4.8000004E-2,1.145E1,1.156E1,-2.5544848E-9,3.9596E0,-1.2000003E-2,-6.0609143E-2,-8.108112E-3,-6.31579E-2,-1.2000003E-2,4.285714E-2,-5.069253E-2,-6.596624E-2],"split_indices":[0,16,1,5,16,2,15,0,0,0,7,8,0,0,15,0,0,6,7,7,4,0,16,0,0,1,0,0,11,0,0,0,0,0,0,0,0],"split_type":[0,0,0,0,0,0,0,0,0,0,0,0,0,0,0,0,0,0,0,0,0,0,0,0,0,0,0,0,0,0,0,0,0,0,0,0,0],"sum_hessian":[7.666666E2,1.1999999E1,7.546666E2,6.222222E0,5.7777777E0,1.16444435E2,6.3822217E2,1.3333333E0,4.8888884E0,1.3333333E0,4.444444E0,1.1511111E2,1.3333333E0,2.9111108E2,3.4711108E2,2.222222E0,2.222222E0,1.1199999E2,3.111111E0,1.1555555E1,3.3555554E2,1.7777777E0,1.1022221E2,1.3333333E0,1.7777777E0,8.444444E0,3.111111E0,1.3333333E0,3.342222E2,1.7777777E0,1.08444435E2,3.111111E0,5.333333E0,1.7777777E0,1.3333333E0,3.9111107E1,2.9511108E2],"tree_param":{"num_deleted":"0","num_feature":"17","num_nodes":"37","size_leaf_vector":"1"}},{"base_weights":[2.7746415E-1,2.954511E-1,-1.9844362E-1,5.298416E-1,2.6209605E-1,-4.2265114E-8,-5.049505E-1,5.785997E-1,-4.109593E-2,3.247118E-1,1.6427636E-1,-1.926606E-1,3.230769E-1,-2.5544848E-9,-5.7303375E-1,4.6801868E-1,1.104E0,8.1818186E-2,-6.1224498E-2,5.4072785E-1,2.820341E-1,1.9764702E-1,-2.2702707E-1,1.9999997E-1,-4.1095895E-1,-8.1081115E-2,6.486486E-1,-6.623378E-2,-2.5544848E-9,5.236541E-1,-5.675676E-2,5.121951E-1,1.2580645E0,7.78157E-1,2.8668937E-1,-2.3076928E-1,3.0197844E-1,4.641509E-1,1.5890847E-1,2.823529E-1,-6.0550463E-1,-2.727273E-1,8.571428E-2,-6.1224498E-2,-3.2511625E-8,2.3999998E-2,-4.2857148E-2,9.6E-2,-2.5544848E-9,5.96745E-2,-1.3043483E-2,9.6E-2,-1.2000003E-2,4.285714E-2,1.3333334E-1,8.475836E-2,-3.2511627E-9,-4.243043E-9,6.72E-2,-6.393444E-2,1.8461535E-2,8.888889E-2,2.8408682E-2,3.218884E-2,1.1707317E-1,-8.191131E-3,2.0252362E-2,5.2173913E-2,-4.8000004E-2,-2.5544848E-9,-6.804124E-2,-2.5544848E-9,-4.2857148E-2,4.285714E-2,-4.2857148E-2],"categories":[],"categories_nodes":[],"categories_segments":[],"categories_sizes":[],"default_left":[0,0,0,0,0,0,0,0,0,0,0,0,0,0,0,0,0,0,0,0,0,0,0,0,0,0,0,0,0,0,0,0,0,0,0,0,0,0,0,0,0,0,0,0,0,0,0,0,0,0,0,0,0,0,0,0,0,0,0,0,0,0,0,0,0,0,0,0,0,0,0,0,0,0,0],"id":1,"left_children":[1,3,5,7,9,11,13,15,17,19,21,23,25,-1,27,29,31,-1,-1,33,35,37,39,41,43,45,47,-1,-1,49,-1,51,53,55,57,59,61,63,65,67,69,71,-1,-1,73,-1,-1,-1,-1,-1,-1,-1,-1,-1,-1,-1,-1,-1,-1,-1,-1,-1,-1,-1,-1,-1,-1,-1,-1,-1,-1,-1,-1,-1,-1],"loss_changes":[6.6299515E0,5.6474E0,1.7368727E0,2.563202E0,3.9272614E0,1.2033874E0,3.8580465E-1,4.370104E0,4.481663E0,3.4910774E0,3.38338E0,1.1203218E0,1.0029106E0,0E0,5.0605583E-1,4.4006996E0,6.219597E-1,0E0,0E0,3.6438465E0,3.4663658E0,2.3638468E0,4.133849E0,1.787013E0,6.709533E-1,5.6154436E-1,8.302702E-1,0E0,0E0,3.3340855E0,0E0,1.4048779E0,7.3732376E-2,1.7588081E0,3.596232E0,2.324338E0,3.1088905E0,2.582909E0,2.197793E0,1.9740154E0,5.4932404E-1,1.5584415E-1,0E0,0E0,8.5714287E-1,0E0,0E0,0E0,0E0,0E0,0E0,0E0,0E0,0E0,0E0,0E0,0E0,0E0,0E0,0E0,0E0,0E0,0E0,0E0,0E0,0E0,0E0,0E0,0E0,0E0,0E0,0E0,0E0,0E0,0E0],"parents":[2147483647,0,0,1,1,2,2,3,3,4,4,5,5,6,6,7,7,8,8,9,9,10,10,11,11,12,12,14,14,15,15,16,16,19,19,20,20,21,21,22,22,23,23,24,24,25,25,26,26,29,29,31,31,32,32,33,33,34,34,35,35,36,36,37,37,38,38,39,39,40,40,41,41,44,44],"right_children":[2,4,6,8,10,12,14,16,18,20,22,24,26,-1,28,30,32,-1,-1,34,36,38,40,42,44,46,48,-1,-1,50,-1,52,54,56,58,60,62,64,66,68,70,72,-1,-1,74,-1,-1,-1,-1,-1,-1,-1,-1,-1,-1,-1,-1,-1,-1,-1,-1,-1,-1,-1,-1,-1,-1,-1,-1,-1,-1,-1,-1,-1,-1],"split_conditions":[1.793E1,2.0160812E7,6.467066E1,1.787E1,3.403191E5,1.849E1,1.819E1,1.762E1,1.717E1,-7.278E-1,1.3152E1,2.7493988E5,5.7106394E5,-2.5544848E-9,1.906E1,6.9421486E1,1.79E1,8.1818186E-2,-6.1224498E-2,1.0497E1,-6.7E-1,-1.5E0,4.8359553E5,2.3503716E5,1.8144E1,9.9768606E5,1.8752E1,-6.623378E-2,-2.5544848E-9,1.7601E1,-5.675676E-2,1.782E1,1.746E1,2.0230832E7,-1.2E-1,2.2172566E5,-5.865E-1,9.20308E5,-9.091E-1,1.649E1,1.269E1,1.788E1,8.571428E-2,-6.1224498E-2,1.853E1,2.3999998E-2,-4.2857148E-2,9.6E-2,-2.5544848E-9,5.96745E-2,-1.3043483E-2,9.6E-2,-1.2000003E-2,4.285714E-2,1.3333334E-1,8.475836E-2,-3.2511627E-9,-4.243043E-9,6.72E-2,-6.393444E-2,1.8461535E-2,8.888889E-2,2.8408682E-2,3.218884E-2,1.1707317E-1,-8.191131E-3,2.0252362E-2,5.2173913E-2,-4.8000004E-2,-2.5544848E-9,-6.804124E-2,-2.5544848E-9,-4.2857148E-2,4.285714E-2,-4.2857148E-2],"split_indices":[0,9,16,15,7,3,1,3,3,6,15,7,7,0,4,16,1,0,0,15,6,6,7,7,14,8,14,0,0,15,0,1,0,9,5,7,6,7,6,0,1,3,0,0,4,0,0,0,0,0,0,0,0,0,0,0,0,0,0,0,0,0,0,0,0,0,0,0,0,0,0,0,0,0,0],"split_type":[0,0,0,0,0,0,0,0,0,0,0,0,0,0,0,0,0,0,0,0,0,0,0,0,0,0,0,0,0,0,0,0,0,0,0,0,0,0,0,0,0,0,0,0,0,0,0,0,0,0,0,0,0,0,0,0,0,0,0,0,0,0,0,0,0,0,0,0,0,0,0,0,0,0,0],"sum_hessian":[7.666666E2,7.391111E2,2.7555553E1,9.022221E1,6.4888885E2,1.7333332E1,1.0222221E1,8.311111E1,7.1111107E0,3.942222E2,2.5466666E2,1.1111111E1,6.222222E0,1.3333333E0,8.888888E0,7.022222E1,1.2888888E1,2.6666665E0,4.444444E0,6.3111107E1,3.3111108E2,2.351111E2,1.9555553E1,3.9999998E0,7.1111107E0,3.111111E0,3.111111E0,7.5555553E0,1.3333333E0,6.711111E1,3.111111E0,3.5555553E0,9.333333E0,3.1555553E1,3.1555553E1,1.1999999E1,3.1911108E2,2.8444443E1,2.0666666E2,8.444444E0,1.1111111E1,2.6666665E0,1.3333333E0,4.444444E0,2.6666665E0,1.7777777E0,1.3333333E0,1.7777777E0,1.3333333E0,6.0444443E1,6.666666E0,1.7777777E0,1.7777777E0,1.3333333E0,7.9999995E0,2.8888887E1,2.6666665E0,1.8666666E1,1.2888888E1,5.7777777E0,6.222222E0,7.9999995E0,3.1111108E2,2.4888887E1,3.5555553E0,3.1555553E1,1.751111E2,6.666666E0,1.7777777E0,1.3333333E0,9.777777E0,1.3333333E0,1.3333333E0,1.3333333E0,1.3333333E0],"tree_param":{"num_deleted":"0","num_feature":"17","num_nodes":"75","size_leaf_vector":"1"}},{"base_weights":[3.621363E-1,3.4139013E-1,8.871595E-1,3.5113686E-1,-2.3076928E-1,9.6E-1,2.926829E-1,2.8336427E-1,4.4146076E-1,-5.049505E-1,9.6E-2,4.6153843E-1,1.1005917E0,-1.2000003E-2,6E-2,2.0971113E-1,4.082073E-1,2.212581E-1,4.8312685E-1,4.285714E-2,-6.741574E-2,-4.8000004E-2,8.571429E-2,1.293578E0,6.521739E-1,3.4953895E-1,6.97095E-2,1.510791E-1,5.1376146E-1,-4.4776164E-2,4.1263938E-1,5.637584E-1,3.7165508E-1,1.3608247E-1,4.285714E-2,1.6216213E-1,9.512195E-2,3.0349148E-2,9.176471E-2,-2.8402373E-2,1.2631575E-2,2.8903652E-2,-1.9200005E-2,7.75076E-2,3.767019E-2,2.5714282E-2,-3.428572E-2,-9.677424E-3,6.486487E-2,4.8418757E-2,7.205542E-2,6.9124387E-3,4.494382E-2,-4.2857148E-2,6E-2],"categories":[],"categories_nodes":[],"categories_segments":[],"categories_sizes":[],"default_left":[0,0,0,0,0,0,0,0,0,0,0,0,0,0,0,0,0,0,0,0,0,0,0,0,0,0,0,0,0,0,0,0,0,0,0,0,0,0,0,0,0,0,0,0,0,0,0,0,0,0,0,0,0,0,0],"id":2,"left_children":[1,3,5,7,9,11,13,15,17,19,-1,21,23,-1,-1,25,27,29,31,-1,-1,-1,-1,33,35,37,39,41,43,45,47,49,51,-1,-1,53,-1,-1,-1,-1,-1,-1,-1,-1,-1,-1,-1,-1,-1,-1,-1,-1,-1,-1,-1],"loss_changes":[8.058723E0,4.2083817E0,9.555378E-1,4.3320312E0,4.729079E0,1.2440224E0,6.497562E-1,3.765091E0,2.7404137E0,2.0615668E0,0E0,3.1015387E0,7.8136253E-1,0E0,0E0,5.1720066E0,4.1111336E0,2.6264033E0,2.1283913E0,0E0,0E0,0E0,0E0,1.2128258E-1,9.691894E-1,3.189146E0,2.7168021E0,2.248466E0,3.6119308E0,2.098081E0,3.6562033E0,1.5100937E0,2.607108E0,0E0,0E0,1.3204634E0,0E0,0E0,0E0,0E0,0E0,0E0,0E0,0E0,0E0,0E0,0E0,0E0,0E0,0E0,0E0,0E0,0E0,0E0,0E0],"parents":[2147483647,0,0,1,1,2,2,3,3,4,4,5,5,6,6,7,7,8,8,9,9,11,11,12,12,15,15,16,16,17,17,18,18,23,23,24,24,25,25,26,26,27,27,28,28,29,29,30,30,31,31,32,32,35,35],"right_children":[2,4,6,8,10,12,14,16,18,20,-1,22,24,-1,-1,26,28,30,32,-1,-1,-1,-1,34,36,38,40,42,44,46,48,50,52,-1,-1,54,-1,-1,-1,-1,-1,-1,-1,-1,-1,-1,-1,-1,-1,-1,-1,-1,-1,-1,-1],"split_conditions":[1.793E1,1.79E1,1.8938E1,2E-2,1.787E1,1.819E1,-1E-2,3.669071E5,2.0161028E7,1.705E1,9.6E-2,1.76805E1,1.892E1,-1.2000003E-2,6E-2,4.342105E1,-1.5E0,1.587E1,8.357E-1,4.285714E-2,-6.741574E-2,-4.8000004E-2,8.571429E-2,1.849E1,1.370895E6,4.1739132E1,4.6258503E1,5.096154E1,-9.091E-1,1.544E1,4.4527E0,5.435E-1,1.01E0,1.3608247E-1,4.285714E-2,1.901E1,9.512195E-2,3.0349148E-2,9.176471E-2,-2.8402373E-2,1.2631575E-2,2.8903652E-2,-1.9200005E-2,7.75076E-2,3.767019E-2,2.5714282E-2,-3.428572E-2,-9.677424E-3,6.486487E-2,4.8418757E-2,7.205542E-2,6.9124387E-3,4.494382E-2,-4.2857148E-2,6E-2],"split_indices":[0,1,15,5,15,1,5,7,9,0,0,15,1,0,0,16,6,1,6,0,0,0,0,3,7,16,16,16,6,1,11,6,6,0,0,0,0,0,0,0,0,0,0,0,0,0,0,0,0,0,0,0,0,0,0],"split_type":[0,0,0,0,0,0,0,0,0,0,0,0,0,0,0,0,0,0,0,0,0,0,0,0,0,0,0,0,0,0,0,0,0,0,0,0,0,0,0,0,0,0,0,0,0,0,0,0,0,0,0,0,0,0,0],"sum_hessian":[7.666666E2,7.391111E2,2.7555553E1,7.271111E2,1.1999999E1,2.3999998E1,3.5555553E0,4.1777774E2,3.093333E2,1.0222221E1,1.7777777E0,6.222222E0,1.7777777E1,1.7777777E0,1.7777777E0,2.6444443E2,1.5333333E2,5.0222218E1,2.5911108E2,1.3333333E0,8.888888E0,1.7777777E0,4.444444E0,1.1111111E1,6.666666E0,1.3155554E2,1.3288889E2,4.5333332E1,1.0799999E2,2.1333332E1,2.8888887E1,1.4799998E2,1.1111111E2,9.777777E0,1.3333333E0,3.111111E0,3.5555553E0,1.2311111E2,8.444444E0,1.7777777E1,1.1511111E2,3.2444443E1,1.2888888E1,3.5555553E1,7.244444E1,1.0666666E1,1.0666666E1,9.333333E0,1.9555553E1,1.00888885E2,4.7111107E1,2.311111E1,8.799999E1,1.3333333E0,1.7777777E0],"tree_param":{"num_deleted":"0","num_feature":"17","num_nodes":"55","size_leaf_vector":"1"}},{"base_weights":[-6.1326575E-1,-2.0970789E-1,-6.19482E-1,-4.851563E-1,1.1018644E-1,-5.386362E-1,-6.3339484E-1,-6.0115784E-2,1.182295E-3,8.3222814E-2,-2.2757912E-1,-5.5385625E-1,4.2473957E-2,-6.661603E-2,-6.0412556E-1,-5.039669E-2,1.1892504E-2,-5.6689286E-1,-6.656473E-2,-2.7091327E-1,-6.1488444E-1,-1.0659506E-2,-5.7337815E-1,4.2412963E-2,-4.6281237E-2,-4.3698347E-1,1.7023717E-1,2.1267768E-3,-6.1749756E-1,-1.0988123E-2,-5.8002304E-2,-6.946765E-3,-6.093384E-2,-1.1567303E-2,4.3784913E-2,-4.8252404E-2,-6.337663E-2],"categories":[],"categories_nodes":[],"categories_segments":[],"categories_sizes":[],"default_left":[0,0,0,0,0,0,0,0,0,0,0,0,0,0,0,0,0,0,0,0,0,0,0,0,0,0,0,0,0,0,0,0,0,0,0,0,0],"id":3,"left_children":[1,3,5,7,9,11,13,-1,-1,-1,15,17,-1,-1,19,-1,-1,21,23,25,27,-1,29,-1,-1,31,33,-1,35,-1,-1,-1,-1,-1,-1,-1,-1],"loss_changes":[1.7319946E0,1.1787854E0,4.8046875E-1,4.1339338E-1,1.8292043E0,1.9057884E0,1.8977356E-1,0E0,0E0,0E0,5.738487E-1,6.77536E-1,0E0,0E0,1.0411987E0,0E0,0E0,2.6583862E-1,9.870295E-1,9.773653E-1,5.543442E-1,0E0,2.6820755E-1,0E0,0E0,5.426307E-1,3.6362502E-1,0E0,4.0626526E-1,0E0,0E0,0E0,0E0,0E0,0E0,0E0,0E0],"parents":[2147483647,0,0,1,1,2,2,3,3,4,4,5,5,6,6,10,10,11,11,14,14,17,17,18,18,19,19,20,20,22,22,25,25,26,26,28,28],"right_children":[2,4,6,8,10,12,14,-1,-1,-1,16,18,-1,-1,20,-1,-1,22,24,26,28,-1,30,-1,-1,32,34,-1,36,-1,-1,-1,-1,-1,-1,-1,-1],"split_conditions":[6.84E0,2.8776978E1,7.86E0,2.234251E5,3.2037037E1,7.76E0,1.1368E1,-6.0115784E-2,1.182295E-3,8.3222814E-2,2.023042E7,3.9398744E5,4.2473957E-2,-6.661603E-2,1.14605E1,-5.039669E-2,1.1892504E-2,1.6201117E1,6.270573E5,5.0512162E5,1.107E1,-1.0659506E-2,-1.81E0,4.2412963E-2,-4.6281237E-2,1.145E1,1.14145E1,2.1267768E-3,3.9596E0,-1.0988123E-2,-5.8002304E-2,-6.946765E-3,-6.093384E-2,-1.1567303E-2,4.3784913E-2,-4.8252404E-2,-6.337663E-2],"split_indices":[0,16,1,8,16,2,15,0,0,0,9,8,0,0,15,0,0,16,7,7,14,0,6,0,0,1,15,0,11,0,0,0,0,0,0,0,0],"split_type":[0,0,0,0,0,0,0,0,0,0,0,0,0,0,0,0,0,0,0,0,0,0,0,0,0,0,0,0,0,0,0,0,0,0,0,0,0],"sum_hessian":[7.412235E2,1.1771215E1,7.2945233E2,6.0474124E0,5.723803E0,1.1293233E2,6.1652E2,4.733035E0,1.3143771E0,1.3576438E0,4.366159E0,1.11594376E2,1.337949E0,2.8061984E2,3.3590015E2,2.1760268E0,2.1901321E0,1.08527565E2,3.066815E0,1.1325289E1,3.2457486E2,1.7500952E0,1.06777466E2,1.3386853E0,1.7281295E0,8.234772E0,3.0905175E0,1.2986028E0,3.2327628E2,1.757022E0,1.0502045E2,3.076896E0,5.157875E0,1.7686707E0,1.3218468E0,3.8071873E1,2.8520438E2],"tree_param":{"num_deleted":"0","num_feature":"17","num_nodes":"37","size_leaf_vector":"1"}},{"base_weights":[2.540145E-1,2.702763E-1,-1.8675354E-1,4.8249215E-1,2.3978299E-1,3.379684E-3,-4.858749E-1,5.260715E-1,-4.0751506E-2,2.966173E-1,1.5038612E-1,-1.7845002E-1,3.0066353E-1,5.709219E-4,-5.5376995E-1,4.263577E-1,9.9063146E-1,7.6322354E-2,-5.9722938E-2,4.9274E-1,2.575273E-1,1.8160748E-1,-2.2093658E-1,1.934383E-1,-3.906108E-1,-9.2064746E-2,6.189227E-1,-6.417996E-2,-3.6169388E-4,4.776983E-1,-5.5772956E-2,4.7670737E-1,1.1188831E0,7.494264E-1,2.932111E-1,-2.3099668E-1,2.7629215E-1,1.6958119E-1,9.9368654E-2,2.6339674E-1,-5.907194E-1,-2.613019E-1,8.0526955E-2,-5.9098847E-2,8.238433E-3,-4.326956E-2,2.2593401E-2,9.0537034E-2,3.7771813E-4,5.4456145E-2,-1.3264864E-2,9.086273E-2,-1.310408E-2,1.1831266E-1,3.9177667E-2,8.295574E-2,-6.098992E-4,-3.0825078E-2,3.9214887E-2,-6.2827304E-2,1.640699E-2,8.125507E-2,2.5968323E-2,1.8024862E-2,-5.5123825E-2,4.8951488E-2,-4.7158934E-2,-8.741934E-5,-6.6515006E-2,-4.231262E-2,1.4393254E-3,4.1527726E-2,-4.1196276E-2],"categories":[],"categories_nodes":[],"categories_segments":[],"categories_sizes":[],"default_left":[0,0,0,0,0,0,0,0,0,0,0,0,0,0,0,0,0,0,0,0,0,0,0,0,0,0,0,0,0,0,0,0,0,0,0,0,0,0,0,0,0,0,0,0,0,0,0,0,0,0,0,0,0,0,0,0,0,0,0,0,0,0,0,0,0,0,0,0,0,0,0,0,0],"id":4,"left_children":[1,3,5,7,9,11,13,15,17,19,21,23,25,-1,27,29,31,-1,-1,33,35,37,39,41,43,45,47,-1,-1,49,-1,51,53,55,57,59,61,63,-1,65,67,69,-1,-1,71,-1,-1,-1,-1,-1,-1,-1,-1,-1,-1,-1,-1,-1,-1,-1,-1,-1,-1,-1,-1,-1,-1,-1,-1,-1,-1,-1,-1],"loss_changes":[5.622814E0,4.7387924E0,1.6084913E0,2.1480446E0,3.298111E0,1.041059E0,3.6985445E-1,3.5689793E0,4.07899E0,2.9487114E0,3.0280666E0,1.0193448E0,9.700148E-1,0E0,4.6568418E-1,3.9391317E0,4.20393E-1,0E0,0E0,3.1388712E0,3.149475E0,2.158718E0,3.8165212E0,1.605439E0,6.400579E-1,5.462495E-1,7.3039293E-1,0E0,0E0,2.9136944E0,0E0,1.3350364E0,4.2749405E-2,1.7024965E0,2.4142392E0,2.1427605E0,2.680153E0,1.9141855E0,0E0,1.8165607E0,5.218396E-1,1.680959E-1,0E0,0E0,7.943304E-1,0E0,0E0,0E0,0E0,0E0,0E0,0E0,0E0,0E0,0E0,0E0,0E0,0E0,0E0,0E0,0E0,0E0,0E0,0E0,0E0,0E0,0E0,0E0,0E0,0E0,0E0,0E0,0E0],"parents":[2147483647,0,0,1,1,2,2,3,3,4,4,5,5,6,6,7,7,8,8,9,9,10,10,11,11,12,12,14,14,15,15,16,16,19,19,20,20,21,21,22,22,23,23,24,24,25,25,26,26,29,29,31,31,32,32,33,33,34,34,35,35,36,36,37,37,39,39,40,40,41,41,44,44],"right_children":[2,4,6,8,10,12,14,16,18,20,22,24,26,-1,28,30,32,-1,-1,34,36,38,40,42,44,46,48,-1,-1,50,-1,52,54,56,58,60,62,64,-1,66,68,70,-1,-1,72,-1,-1,-1,-1,-1,-1,-1,-1,-1,-1,-1,-1,-1,-1,-1,-1,-1,-1,-1,-1,-1,-1,-1,-1,-1,-1,-1,-1],"split_conditions":[1.793E1,2.0160812E7,6.467066E1,1.787E1,3.403191E5,1.849E1,1.802E1,1.762E1,1.717E1,-7.278E-1,1.3152E1,2.7493988E5,4.8672565E1,5.709219E-4,1.906E1,6.9421486E1,1.79E1,7.6322354E-2,-5.9722938E-2,1.02545E1,-6.7E-1,1.8654752E6,4.8359553E5,2.3503716E5,1.8144E1,1.844E1,1.914E1,-6.417996E-2,-3.6169388E-4,1.7601E1,-5.5772956E-2,1.7722E1,5.3E-1,2.0230832E7,1.8948116E5,2.2172566E5,-5.865E-1,4.13E0,9.9368654E-2,1.649E1,1.269E1,5.423729E1,8.0526955E-2,-5.9098847E-2,1.853E1,-4.326956E-2,2.2593401E-2,9.0537034E-2,3.7771813E-4,5.4456145E-2,-1.3264864E-2,9.086273E-2,-1.310408E-2,1.1831266E-1,3.9177667E-2,8.295574E-2,-6.098992E-4,-3.0825078E-2,3.9214887E-2,-6.2827304E-2,1.640699E-2,8.125507E-2,2.5968323E-2,1.8024862E-2,-5.5123825E-2,4.8951488E-2,-4.7158934E-2,-8.741934E-5,-6.6515006E-2,-4.231262E-2,1.4393254E-3,4.1527726E-2,-4.1196276E-2],"split_indices":[0,9,16,15,7,3,3,3,3,6,15,7,16,0,4,16,1,0,0,15,6,7,7,7,14,2,3,0,0,15,0,13,5,9,8,7,6,6,0,0,1,16,0,0,4,0,0,0,0,0,0,0,0,0,0,0,0,0,0,0,0,0,0,0,0,0,0,0,0,0,0,0,0],"split_type":[0,0,0,0,0,0,0,0,0,0,0,0,0,0,0,0,0,0,0,0,0,0,0,0,0,0,0,0,0,0,0,0,0,0,0,0,0,0,0,0,0,0,0,0,0,0,0,0,0,0,0,0,0,0,0,0,0,0,0,0,0,0,0,0,0,0,0,0,0,0,0,0,0],"sum_hessian":[7.764255E2,7.491721E2,2.7253338E1,9.226161E1,6.569105E2,1.726667E1,9.986669E0,8.516323E1,7.0983825E0,4.0017813E2,2.5673242E2,1.0961777E1,6.304893E0,1.323072E0,8.663596E0,7.1692764E1,1.3470467E1,2.7515447E0,4.346838E0,6.457694E1,3.356012E2,2.372915E2,1.9440903E1,4.0140147E0,6.9477625E0,3.140399E0,3.1644938E0,7.324952E0,1.3386443E0,6.8627014E1,3.0657501E0,3.6322894E0,9.838177E0,2.7037823E1,3.753912E1,1.199568E1,3.236055E2,2.3501985E2,2.2716498E0,8.541342E0,1.089956E1,2.6312618E0,1.3827527E0,4.3038297E0,2.6439328E0,1.342099E0,1.7983E0,1.8371918E0,1.3273021E0,6.1948387E1,6.6786256E0,1.8338912E0,1.7983983E0,8.463237E0,1.3749398E0,2.4356579E1,2.6812444E0,5.0038915E0,3.253523E1,5.6867876E0,6.3088923E0,8.281911E0,3.1532358E2,2.3233151E2,2.688343E0,6.7872334E0,1.7541087E0,1.3346353E0,9.564925E0,1.3210729E0,1.310189E0,1.3489528E0,1.2949802E0],"tree_param":{"num_deleted":"0","num_feature":"17","num_nodes":"73","size_leaf_vector":"1"}},{"base_weights":[3.3021113E-1,3.1133366E-1,7.992119E-1,3.1999055E-1,-2.1382973E-1,8.6235183E-1,2.704056E-1,2.577207E-1,4.025444E-1,-4.8101836E-1,8.802774E-2,4.117592E-1,9.885657E-1,-1.3232189E-2,5.758518E-2,1.9023687E-1,3.7127405E-1,4.2657167E-1,8.414046E-2,4.1037343E-2,-6.500521E-2,6.648393E-1,-4.2563424E-2,1.15539E0,5.9360784E-1,3.2010642E-1,5.9097722E-2,-5.8146656E-2,3.9463452E-1,3.9299625E-1,6.3023466E-1,-2.345416E-1,5.7055545E-1,7.95813E-3,9.930269E-2,1.2125728E-1,3.9509647E-2,1.357271E-1,8.739992E-2,2.7718041E-2,8.425002E-2,-2.7725438E-2,1.1222207E-2,4.5905802E-2,7.6574916E-3,4.800002E-2,2.459014E-2,7.9824746E-2,3.5172522E-2,-4.6540696E-2,1.4632331E-2,-1.174968E-2,7.419897E-2,-1.421935E-2,4.1085675E-2],"categories":[],"categories_nodes":[],"categories_segments":[],"categories_sizes":[],"default_left":[0,0,0,0,0,0,0,0,0,0,0,0,0,0,0,0,0,0,0,0,0,0,0,0,0,0,0,0,0,0,0,0,0,0,0,0,0,0,0,0,0,0,0,0,0,0,0,0,0,0,0,0,0,0,0],"id":5,"left_children":[1,3,5,7,9,11,13,15,17,19,-1,21,23,-1,-1,25,27,29,31,-1,-1,33,-1,35,37,39,41,-1,43,45,47,49,51,-1,-1,-1,-1,53,-1,-1,-1,-1,-1,-1,-1,-1,-1,-1,-1,-1,-1,-1,-1,-1,-1],"loss_changes":[6.660652E0,3.4865875E0,7.537403E-1,3.700653E0,4.16302E0,1.0686913E0,6.432413E-1,3.1833992E0,2.384903E0,1.9133549E0,0E0,1.8495206E0,6.0273933E-1,0E0,0E0,4.5522213E0,3.7290554E0,1.7625656E0,3.768592E0,0E0,0E0,1.0862248E0,0E0,7.2748184E-2,8.9102983E-1,2.7853909E0,2.4393265E0,0E0,3.1218586E0,3.14579E0,1.588582E0,1.3760779E0,1.2163601E0,0E0,0E0,0E0,0E0,3.773252E-1,0E0,0E0,0E0,0E0,0E0,0E0,0E0,0E0,0E0,0E0,0E0,0E0,0E0,0E0,0E0,0E0,0E0],"parents":[2147483647,0,0,1,1,2,2,3,3,4,4,5,5,6,6,7,7,8,8,9,9,11,11,12,12,15,15,16,16,17,17,18,18,21,21,23,23,24,24,25,25,26,26,28,28,29,29,30,30,31,31,32,32,37,37],"right_children":[2,4,6,8,10,12,14,16,18,20,-1,22,24,-1,-1,26,28,30,32,-1,-1,34,-1,36,38,40,42,-1,44,46,48,50,52,-1,-1,-1,-1,54,-1,-1,-1,-1,-1,-1,-1,-1,-1,-1,-1,-1,-1,-1,-1,-1,-1],"split_conditions":[1.793E1,1.79E1,1.8938E1,2E-2,1.787E1,2.7493988E5,9.9768606E5,3.669071E5,2.0077011E6,1.705E1,8.802774E-2,2.3762112E5,1.892E1,-1.3232189E-2,5.758518E-2,4.342105E1,7E0,8.374797E5,5.2251E6,4.1037343E-2,-6.500521E-2,1.806E1,-4.2563424E-2,1.8844E1,6.2878788E1,4.1739132E1,4.6258503E1,-5.8146656E-2,1.46635E1,8.357E-1,1.3788732E6,1.497E1,4.2265E0,7.95813E-3,9.930269E-2,1.2125728E-1,3.9509647E-2,1.87525E1,8.739992E-2,2.7718041E-2,8.425002E-2,-2.7725438E-2,1.1222207E-2,4.5905802E-2,7.6574916E-3,4.800002E-2,2.459014E-2,7.9824746E-2,3.5172522E-2,-4.6540696E-2,1.4632331E-2,-1.174968E-2,7.419897E-2,-1.421935E-2,4.1085675E-2],"split_indices":[0,1,15,5,15,7,8,7,7,0,0,7,1,0,0,16,2,8,8,0,0,4,0,13,16,16,16,0,15,6,8,15,11,0,0,0,0,15,0,0,0,0,0,0,0,0,0,0,0,0,0,0,0,0,0],"split_type":[0,0,0,0,0,0,0,0,0,0,0,0,0,0,0,0,0,0,0,0,0,0,0,0,0,0,0,0,0,0,0,0,0,0,0,0,0,0,0,0,0,0,0,0,0,0,0,0,0,0,0,0,0,0,0],"sum_hessian":[7.7941864E2,7.5086005E2,2.855861E1,7.390678E2,1.1792228E1,2.4948936E1,3.609676E0,4.2364053E2,3.1542728E2,9.928077E0,1.8641508E0,6.3918724E0,1.8557064E1,1.8013747E0,1.8083011E0,2.674013E2,1.5623921E2,2.9297888E2,2.2448374E1,1.3549658E0,8.573112E0,5.0666666E0,1.3252058E0,1.1692834E1,6.864229E0,1.33627E2,1.337743E2,3.1674113E0,1.530718E2,2.5402975E2,3.8949135E1,1.3875469E1,8.572906E0,2.266786E0,2.7998807E0,1.0321651E1,1.3711818E0,3.1706321E0,3.693597E0,1.2489477E2,8.732233E0,1.7671268E1,1.1610304E2,1.2692052E2,2.615128E1,1.5819633E2,9.583343E1,2.3129784E1,1.5819353E1,8.500703E0,5.3747663E0,1.7727174E0,6.8001876E0,1.817685E0,1.3529472E0],"tree_param":{"num_deleted":"0","num_feature":"17","num_nodes":"55","size_leaf_vector":"1"}},{"base_weights":[-5.89765E-1,-1.9180644E-1,-5.960182E-1,-4.658654E-1,1.1934108E-1,-5.1540875E-1,-6.099735E-1,2.0828422E-3,-5.8283605E-2,8.080477E-2,-2.1279848E-1,-5.307813E-1,4.202857E-2,-6.430702E-2,-5.805331E-1,-4.8865784E-2,1.2476719E-2,-5.437684E-1,-5.795686E-2,-2.502115E-1,-5.913869E-1,-9.353294E-3,-5.503019E-1,4.12851E-2,-4.4893797E-2,-4.1587558E-1,1.7805803E-1,2.845677E-3,-5.9402597E-1,-6.120767E-2,-4.62756E-2,-5.7084328E-3,-5.889073E-2,4.4545654E-2,-1.1071741E-2,-4.599759E-2,-6.1034676E-2],"categories":[],"categories_nodes":[],"categories_segments":[],"categories_sizes":[],"default_left":[0,0,0,0,0,0,0,0,0,0,0,0,0,0,0,0,0,0,0,0,0,0,0,0,0,0,0,0,0,0,0,0,0,0,0,0,0],"id":6,"left_children":[1,3,5,7,9,11,13,-1,-1,-1,15,17,-1,-1,19,-1,-1,21,23,25,27,-1,29,-1,-1,31,33,-1,35,-1,-1,-1,-1,-1,-1,-1,-1],"loss_changes":[1.668045E0,1.1261878E0,4.7834778E-1,4.0376604E-1,1.6989895E0,1.811718E0,2.0666504E-1,0E0,0E0,0E0,5.5406487E-1,6.3842964E-1,0E0,0E0,1.0183411E0,0E0,0E0,2.605343E-1,9.2825544E-1,9.3128145E-1,5.3092194E-1,0E0,2.8106117E-1,0E0,0E0,5.258727E-1,3.636212E-1,0E0,4.0389252E-1,0E0,0E0,0E0,0E0,0E0,0E0,0E0,0E0],"parents":[2147483647,0,0,1,1,2,2,3,3,4,4,5,5,6,6,10,10,11,11,14,14,17,17,18,18,19,19,20,20,22,22,25,25,26,26,28,28],"right_children":[2,4,6,8,10,12,14,-1,-1,-1,16,18,-1,-1,20,-1,-1,22,24,26,28,-1,30,-1,-1,32,34,-1,36,-1,-1,-1,-1,-1,-1,-1,-1],"split_conditions":[6.84E0,2.8776978E1,7.86E0,-9E-2,3.2037037E1,7.76E0,1.1368E1,2.0828422E-3,-5.8283605E-2,8.080477E-2,2.843822E5,3.9398744E5,4.202857E-2,-6.430702E-2,1.14605E1,-4.8865784E-2,1.2476719E-2,1.6201117E1,6.270573E5,5.0512162E5,1.107E1,-9.353294E-3,4.9462364E1,4.12851E-2,-4.4893797E-2,1.145E1,1.143E1,2.845677E-3,3.9596E0,-6.120767E-2,-4.62756E-2,-5.7084328E-3,-5.889073E-2,4.4545654E-2,-1.1071741E-2,-4.599759E-2,-6.1034676E-2],"split_indices":[0,16,1,5,16,2,15,0,0,0,7,8,0,0,15,0,0,16,7,7,14,0,16,0,0,1,2,0,11,0,0,0,0,0,0,0,0],"split_type":[0,0,0,0,0,0,0,0,0,0,0,0,0,0,0,0,0,0,0,0,0,0,0,0,0,0,0,0,0,0,0,0,0,0,0,0,0],"sum_hessian":[7.152465E2,1.1554896E1,7.0369165E2,5.879223E0,5.6756735E0,1.0944449E2,5.9424713E2,1.2984672E0,4.5807557E0,1.3804309E0,4.295243E0,1.0810123E2,1.3432621E0,2.699398E2,3.2430734E2,2.117348E0,2.1778946E0,1.0506536E2,3.0358715E0,1.1082382E1,3.1322495E2,1.7219E0,1.0334346E2,1.3519534E0,1.6839182E0,8.012075E0,3.070307E0,1.2864766E0,3.1193848E2,5.707691E1,4.6266552E1,3.0394688E0,4.9726067E0,1.3124458E0,1.7578611E0,3.702422E1,2.7491428E2],"tree_param":{"num_deleted":"0","num_feature":"17","num_nodes":"37","size_leaf_vector":"1"}},{"base_weights":[2.3343517E-1,2.4817754E-1,-1.7579073E-1,4.416288E-1,2.2020179E-1,4.7417125E-3,-4.6582457E-1,4.8090023E-1,-4.04995E-2,2.7169544E-1,1.387141E-1,-1.6801348E-1,2.8092748E-1,8.4350334E-4,-5.331428E-1,3.8969478E-1,9.02177E-1,7.1320646E-2,-5.8264006E-2,4.4831142E-1,2.3512715E-1,1.6814016E-1,-2.1596123E-1,1.8214454E-1,-3.7283453E-1,7.831612E-2,3.194746E-2,-6.2159654E-2,1.8282767E-4,4.3718112E-1,-5.4680403E-2,4.511103E-1,1.01042844E-1,6.5296817E-1,2.202001E-1,-3.2475457E-1,2.5346524E-1,4.069248E-1,1.3305578E-1,2.4174723E-1,-5.7589036E-1,-2.5230864E-1,7.513389E-2,-5.7065483E-2,1.0334056E-2,2.5352454E-1,-4.2464048E-2,4.9875848E-2,-1.3407248E-2,8.598258E-2,-1.3127456E-2,4.1472763E-2,8.3098404E-2,-3.3024468E-3,5.4775834E-2,-6.095024E-2,2.0463297E-3,1.0476164E-2,3.0648742E-2,2.766627E-2,1.047528E-1,1.9117365E-2,-3.6205854E-3,4.5611706E-2,-4.658733E-2,-1.2998973E-4,-6.500352E-2,1.8409344E-3,-4.1374978E-2,3.9658003E-2,-3.9893497E-2,-1.3172261E-2,5.434311E-2],"categories":[],"categories_nodes":[],"categories_segments":[],"categories_sizes":[],"default_left":[0,0,0,0,0,0,0,0,0,0,0,0,0,0,0,0,0,0,0,0,0,0,0,0,0,0,0,0,0,0,0,0,0,0,0,0,0,0,0,0,0,0,0,0,0,0,0,0,0,0,0,0,0,0,0,0,0,0,0,0,0,0,0,0,0,0,0,0,0,0,0,0,0],"id":7,"left_children":[1,3,5,7,9,11,13,15,17,19,21,23,25,-1,27,29,31,-1,-1,33,35,37,39,41,43,-1,45,-1,-1,47,-1,49,-1,51,53,55,57,59,61,63,65,67,-1,-1,69,71,-1,-1,-1,-1,-1,-1,-1,-1,-1,-1,-1,-1,-1,-1,-1,-1,-1,-1,-1,-1,-1,-1,-1,-1,-1,-1,-1],"loss_changes":[4.781639E0,4.007496E0,1.4627519E0,1.8150063E0,2.7511597E0,9.147275E-1,3.4647822E-1,3.0206623E0,3.7110064E0,2.5182114E0,2.7436275E0,9.1502404E-1,8.966876E-1,0E0,4.4574285E-1,3.5257826E0,2.6974297E-1,0E0,0E0,3.057763E0,3.5592499E0,1.9572616E0,3.4852552E0,1.433663E0,5.956484E-1,0E0,7.116853E-1,0E0,0E0,2.5607405E0,0E0,1.2274297E0,0E0,1.1668253E0,2.833238E0,1.1113124E0,2.5577278E0,2.2362409E0,2.0807967E0,1.6756005E0,4.9613786E-1,1.6503297E-1,0E0,0E0,7.322545E-1,5.9046197E-1,0E0,0E0,0E0,0E0,0E0,0E0,0E0,0E0,0E0,0E0,0E0,0E0,0E0,0E0,0E0,0E0,0E0,0E0,0E0,0E0,0E0,0E0,0E0,0E0,0E0,0E0,0E0],"parents":[2147483647,0,0,1,1,2,2,3,3,4,4,5,5,6,6,7,7,8,8,9,9,10,10,11,11,12,12,14,14,15,15,16,16,19,19,20,20,21,21,22,22,23,23,24,24,26,26,29,29,31,31,33,33,34,34,35,35,36,36,37,37,38,38,39,39,40,40,41,41,44,44,45,45],"right_children":[2,4,6,8,10,12,14,16,18,20,22,24,26,-1,28,30,32,-1,-1,34,36,38,40,42,44,-1,46,-1,-1,48,-1,50,-1,52,54,56,58,60,62,64,66,68,-1,-1,70,72,-1,-1,-1,-1,-1,-1,-1,-1,-1,-1,-1,-1,-1,-1,-1,-1,-1,-1,-1,-1,-1,-1,-1,-1,-1,-1,-1],"split_conditions":[1.793E1,2.0160812E7,6.467066E1,1.787E1,3.403191E5,1.849E1,1.8004294E5,1.762E1,1.717E1,-7.2E-1,1.3152E1,2.7493988E5,1.87525E1,8.4350334E-4,1.906E1,6.9421486E1,1.79E1,7.1320646E-2,-5.8264006E-2,1.0497E1,-6.7E-1,-1.5E0,4.8359553E5,2.3503716E5,1.8144E1,7.831612E-2,1.914E1,-6.2159654E-2,1.8282767E-4,1.7601E1,-5.4680403E-2,1.7722E1,1.01042844E-1,4.1029E0,-1.2E-1,2.2172566E5,7.9135E0,9.5596594E5,2.0210828E7,1.649E1,1.269E1,-5E-2,7.513389E-2,-5.7065483E-2,1.853E1,5.317953E5,-4.2464048E-2,4.9875848E-2,-1.3407248E-2,8.598258E-2,-1.3127456E-2,4.1472763E-2,8.3098404E-2,-3.3024468E-3,5.4775834E-2,-6.095024E-2,2.0463297E-3,1.0476164E-2,3.0648742E-2,2.766627E-2,1.047528E-1,1.9117365E-2,-3.6205854E-3,4.5611706E-2,-4.658733E-2,-1.2998973E-4,-6.500352E-2,1.8409344E-3,-4.1374978E-2,3.9658003E-2,-3.9893497E-2,-1.3172261E-2,5.434311E-2],"split_indices":[0,9,16,15,7,3,7,3,3,6,15,7,15,0,4,16,1,0,0,15,6,6,7,7,14,0,3,0,0,15,0,13,0,11,5,7,15,8,9,0,1,5,0,0,4,7,0,0,0,0,0,0,0,0,0,0,0,0,0,0,0,0,0,0,0,0,0,0,0,0,0,0,0],"split_type":[0,0,0,0,0,0,0,0,0,0,0,0,0,0,0,0,0,0,0,0,0,0,0,0,0,0,0,0,0,0,0,0,0,0,0,0,0,0,0,0,0,0,0,0,0,0,0,0,0,0,0,0,0,0,0,0,0,0,0,0,0,0,0,0,0,0,0,0,0,0,0,0,0],"sum_hessian":[7.8435394E2,7.5745996E2,2.6893974E1,9.383165E1,6.636283E2,1.7182392E1,9.71158E0,8.676668E1,7.06497E0,4.052247E2,2.584036E2,1.0811454E1,6.370939E0,1.3158767E0,8.395704E0,7.290742E1,1.3859261E1,2.8237457E0,4.2412243E0,6.7578316E1,3.376464E2,2.3909291E2,1.9310686E1,4.0309443E0,6.7805095E0,1.4004738E0,4.9704647E0,7.065541E0,1.3301629E0,6.989641E1,3.011011E0,3.6824245E0,1.0176836E1,3.4638695E1,3.2939617E1,1.0178431E1,3.2746796E2,2.92716E1,2.098213E2,8.645224E0,1.0665462E1,2.6017864E0,1.429158E0,4.149119E0,2.6313906E0,3.645894E0,1.324571E0,6.3209724E1,6.6866827E0,1.8839133E0,1.7985111E0,1.6237537E1,1.8401157E1,1.9084892E1,1.3854727E1,5.1582046E0,5.0202265E0,8.68548E1,2.4061314E2,2.5515154E1,3.7564461E0,1.5609492E2,5.3726383E1,6.907926E0,1.7372978E0,1.3352655E0,9.330196E0,1.302916E0,1.2988703E0,1.3697237E0,1.261667E0,1.799816E0,1.8460779E0],"tree_param":{"num_deleted":"0","num_feature":"17","num_nodes":"73","size_leaf_vector":"1"}},{"base_weights":[3.0231962E-1,2.8501293E-1,7.279258E-1,2.9453644E-1,-1.13709E-1,7.83721E-1,2.5228557E-1,2.3680902E-1,3.7103954E-1,-4.682648E-1,8.743748E-2,3.7585607E-1,8.966457E-1,-1.3268416E-2,5.4221816E-2,2.8887856E-1,1.1649802E-1,3.5102075E-1,6.819253E-1,-5.810416E-1,3.2323457E-2,6.081627E-1,-4.138192E-2,1.0438423E0,5.440774E-1,1.2856925E-1,3.462995E-1,-4.297654E-1,1.9612537E-1,3.7177834E-1,-4.086797E-2,8.0151635E-1,1.0118759E-1,-2.2736385E-2,-6.421578E-2,4.1895904E-2,-3.8745265E-2,6.1849654E-3,9.149565E-2,1.0925801E-1,3.7021894E-2,1.22821726E-1,7.981306E-2,-1.3733535E-2,3.385564E-2,7.940456E-2,3.2598298E-2,-5.272318E-2,3.8859375E-2,-2.9459435E-2,2.5257561E-2,3.600471E-2,1.0724473E-1,8.735346E-2,-2.231892E-2,8.9126736E-2,-4.163551E-3,-4.544854E-2,5.2810617E-2,-4.2696025E-2,5.257365E-2],"categories":[],"categories_nodes":[],"categories_segments":[],"categories_sizes":[],"default_left":[0,0,0,0,0,0,0,0,0,0,0,0,0,0,0,0,0,0,0,0,0,0,0,0,0,0,0,0,0,0,0,0,0,0,0,0,0,0,0,0,0,0,0,0,0,0,0,0,0,0,0,0,0,0,0,0,0,0,0,0,0],"id":8,"left_children":[1,3,5,7,9,11,13,15,17,19,-1,21,23,-1,-1,25,27,29,31,33,35,37,-1,39,41,43,45,47,49,51,53,55,57,-1,-1,-1,-1,-1,-1,-1,-1,59,-1,-1,-1,-1,-1,-1,-1,-1,-1,-1,-1,-1,-1,-1,-1,-1,-1,-1,-1],"loss_changes":[5.6177597E0,2.9254074E0,6.052933E-1,3.1983185E0,6.8862395E0,8.8845253E-1,5.911283E-1,2.6403923E0,1.7412415E0,8.2364535E-1,0E0,1.6258658E0,4.7602463E-1,0E0,0E0,2.6916237E0,5.7655916E0,2.4641533E0,1.1823549E0,1.06641054E-1,7.4151814E-1,9.814122E-1,0E0,2.5673866E-2,7.595835E-1,4.5123434E0,1.7265968E0,1.5552704E0,3.2512417E0,1.9647675E0,2.8699017E0,1.1677523E0,1.2484791E0,0E0,0E0,0E0,0E0,0E0,0E0,0E0,0E0,1.1540711E0,0E0,0E0,0E0,0E0,0E0,0E0,0E0,0E0,0E0,0E0,0E0,0E0,0E0,0E0,0E0,0E0,0E0,0E0,0E0],"parents":[2147483647,0,0,1,1,2,2,3,3,4,4,5,5,6,6,7,7,8,8,9,9,11,11,12,12,15,15,16,16,17,17,18,18,19,19,20,20,21,21,23,23,24,24,25,25,26,26,27,27,28,28,29,29,30,30,31,31,32,32,41,41],"right_children":[2,4,6,8,10,12,14,16,18,20,-1,22,24,-1,-1,26,28,30,32,34,36,38,-1,40,42,44,46,48,50,52,54,56,58,-1,-1,-1,-1,-1,-1,-1,-1,60,-1,-1,-1,-1,-1,-1,-1,-1,-1,-1,-1,-1,-1,-1,-1,-1,-1,-1,-1],"split_conditions":[1.793E1,1.745E1,1.8938E1,1.406E-1,1.787E1,2.7493988E5,9.9768606E5,5.2542374E1,7.566845E1,1.79E1,8.743748E-2,2.3762112E5,1.892E1,-1.3268416E-2,5.4221816E-2,8.65E0,5.423729E1,3.8E-1,1.3788732E6,4.1304348E1,1.78E1,1.806E1,-4.138192E-2,1.849E1,1.370895E6,2.0221028E7,9.056E0,5.84781E5,1.5006698E5,3.4E-1,1.179E1,1.699E1,1.6303902E6,-2.2736385E-2,-6.421578E-2,4.1895904E-2,-3.8745265E-2,6.1849654E-3,9.149565E-2,1.0925801E-1,3.7021894E-2,1.901E1,7.981306E-2,-1.3733535E-2,3.385564E-2,7.940456E-2,3.2598298E-2,-5.272318E-2,3.8859375E-2,-2.9459435E-2,2.5257561E-2,3.600471E-2,1.0724473E-1,8.735346E-2,-2.231892E-2,8.9126736E-2,-4.163551E-3,-4.544854E-2,5.2810617E-2,-4.2696025E-2,5.257365E-2],"split_indices":[0,4,15,6,15,7,8,16,16,13,0,7,1,0,0,4,16,5,8,16,0,4,0,3,7,9,14,7,7,5,0,3,8,0,0,0,0,0,0,0,0,0,0,0,0,0,0,0,0,0,0,0,0,0,0,0,0,0,0,0,0],"split_type":[0,0,0,0,0,0,0,0,0,0,0,0,0,0,0,0,0,0,0,0,0,0,0,0,0,0,0,0,0,0,0,0,0,0,0,0,0,0,0,0,0,0,0,0,0,0,0,0,0,0,0,0,0,0,0,0,0,0,0,0,0],"sum_hessian":[7.8984485E2,7.6058636E2,2.92585E1,7.430987E2,1.748767E1,2.5606943E1,3.6515555E0,4.2585437E2,3.1724432E2,1.3256799E1,4.2308717E0,6.4909825E0,1.9115961E1,1.801673E0,1.8498825E0,2.9624222E2,1.2961214E2,3.0005222E2,1.719209E1,1.0688161E1,2.568638E0,5.1931267E0,1.2978561E0,1.2102505E1,7.013456E0,7.8980736E1,2.1726149E2,1.5930151E1,1.1368199E2,2.8500726E2,1.5044977E1,1.3941046E1,3.2510424E0,2.2702827E0,8.417878E0,1.3381131E0,1.230525E0,2.2996678E0,2.8934586E0,1.0705965E1,1.3965397E0,3.196561E0,3.8168948E0,3.50029E1,4.3977837E1,7.777295E0,2.0948419E2,1.4552675E1,1.3774754E0,1.1293075E1,1.02388916E2,2.8180292E2,3.204336E0,1.8708494E0,1.3174128E1,1.2548256E1,1.3927903E0,1.3844647E0,1.8665775E0,1.3266513E0,1.8699099E0],"tree_param":{"num_deleted":"0","num_feature":"17","num_nodes":"61","size_leaf_vector":"1"}},{"base_weights":[-5.686014E-1,-1.7472151E-1,-5.749185E-1,-4.4714177E-1,1.2718196E-1,-4.9535984E-1,-5.888038E-1,2.8782482E-3,-5.6522716E-2,7.83874E-2,-1.9900623E-1,-5.108282E-1,4.099874E-2,-6.2264014E-2,-5.588387E-1,-4.7816318E-2,1.3628013E-2,-5.2385694E-1,-4.795587E-2,-2.3044606E-1,-5.6983554E-1,-8.01206E-3,-5.304882E-1,4.050071E-2,-4.3534696E-2,-3.9595452E-1,1.8536639E-1,4.4178916E-3,-5.7254654E-1,-8.32312E-3,-5.372907E-2,-4.4660247E-3,-5.7047453E-2,-9.916409E-3,4.4092473E-2,-4.379765E-2,-5.8911163E-2],"categories":[],"categories_nodes":[],"categories_segments":[],"categories_sizes":[],"default_left":[0,0,0,0,0,0,0,0,0,0,0,0,0,0,0,0,0,0,0,0,0,0,0,0,0,0,0,0,0,0,0,0,0,0,0,0,0],"id":9,"left_children":[1,3,5,7,9,11,13,-1,-1,-1,15,17,-1,-1,19,-1,-1,21,23,25,27,-1,29,-1,-1,31,33,-1,35,-1,-1,-1,-1,-1,-1,-1,-1],"loss_changes":[1.6170654E0,1.0711539E0,4.583435E-1,3.930465E-1,1.5758072E0,1.7105141E0,2.3274231E-1,0E0,0E0,0E0,5.543122E-1,6.1312294E-1,0E0,0E0,1.0008698E0,0E0,0E0,2.6008797E-1,8.778906E-1,8.880447E-1,5.2910614E-1,0E0,2.630024E-1,0E0,0E0,5.131706E-1,3.3831325E-1,0E0,4.1389465E-1,0E0,0E0,0E0,0E0,0E0,0E0,0E0,0E0],"parents":[2147483647,0,0,1,1,2,2,3,3,4,4,5,5,6,6,10,10,11,11,14,14,17,17,18,18,19,19,20,20,22,22,25,25,26,26,28,28],"right_children":[2,4,6,8,10,12,14,-1,-1,-1,16,18,-1,-1,20,-1,-1,22,24,26,28,-1,30,-1,-1,32,34,-1,36,-1,-1,-1,-1,-1,-1,-1,-1],"split_conditions":[6.84E0,2.8776978E1,7.86E0,-9E-2,3.2037037E1,7.76E0,1.1368E1,2.8782482E-3,-5.6522716E-2,7.83874E-2,2.023042E7,3.9398744E5,4.099874E-2,-6.2264014E-2,1.14605E1,-4.7816318E-2,1.3628013E-2,-1.81E0,6.270573E5,5.0512162E5,1.078E1,-8.01206E-3,1.6201117E1,4.050071E-2,-4.3534696E-2,1.145E1,1.1441E1,4.4178916E-3,3.9596E0,-8.32312E-3,-5.372907E-2,-4.4660247E-3,-5.7047453E-2,-9.916409E-3,4.4092473E-2,-4.379765E-2,-5.8911163E-2],"split_indices":[0,16,1,5,16,2,15,0,0,0,9,8,0,0,15,0,0,6,7,7,4,0,16,0,0,1,14,0,11,0,0,0,0,0,0,0,0],"split_type":[0,0,0,0,0,0,0,0,0,0,0,0,0,0,0,0,0,0,0,0,0,0,0,0,0,0,0,0,0,0,0,0,0,0,0,0,0],"sum_hessian":[6.89271E2,1.1332544E1,6.779385E2,5.7042675E0,5.628277E0,1.0618803E2,5.717504E2,1.2843117E0,4.419956E0,1.402197E0,4.22608E0,1.0483267E2,1.3553566E0,2.592403E2,3.1251016E2,2.073536E0,2.1525443E0,1.0183451E2,2.9981575E0,1.0837291E1,3.0167285E2,1.6920342E0,1.0014248E2,1.3611448E0,1.6370127E0,7.7859545E0,3.051336E0,1.2588441E0,3.0041403E2,1.6985822E0,9.84439E1,3.0010312E0,4.7849236E0,1.7333972E0,1.3179387E0,3.593425E1,2.6447977E2],"tree_param":{"num_deleted":"0","num_feature":"17","num_nodes":"37","size_leaf_vector":"1"}},{"base_weights":[2.1534066E-1,2.2870764E-1,-1.6494112E-1,2.1253543E-1,5.196874E-1,8.459705E-3,-4.4849876E-1,2.2080903E-1,-3.973053E-1,8.2634634E-1,1.4607272E-1,-2.0795055E-1,2.0231436E-1,1.5140538E-3,-5.162684E-1,3.7352556E-1,1.9754492E-1,3.9242268E-2,-5.6707835E-1,8.893855E-1,1.1915037E-2,-1.2311847E-2,6.766104E-2,1.7212746E-1,-5.504771E-2,-1.850689E-1,4.82086E-1,-6.0427427E-2,-5.756861E-5,3.2698843E-1,9.283355E-2,5.951742E-2,2.3506674E-1,-6.638441E-2,-1.2002209E-2,9.7808695E-1,4.0853456E-1,3.0006465E-1,-3.8922992E-1,-2.4311754E-1,7.0401296E-2,-5.2120995E-2,3.9711956E-2,8.128161E-2,-4.1518573E-2,4.0102713E-2,-4.196001E-2,-4.8225727E-3,2.1678157E-2,2.5155684E-2,-2.4442885E-2,4.485459E-2,1.0586651E-1,9.092232E-2,-4.648178E-2,-3.1915467E-2,6.699237E-2,-6.2844516E-3,-5.6663167E-2,-4.0796664E-2,2.8070796E-3],"categories":[],"categories_nodes":[],"categories_segments":[],"categories_sizes":[],"default_left":[0,0,0,0,0,0,0,0,0,0,0,0,0,0,0,0,0,0,0,0,0,0,0,0,0,0,0,0,0,0,0,0,0,0,0,0,0,0,0,0,0,0,0,0,0,0,0,0,0,0,0,0,0,0,0,0,0,0,0,0,0],"id":10,"left_children":[1,3,5,7,9,11,13,15,17,19,21,23,25,-1,27,29,31,-1,33,35,-1,37,-1,39,-1,41,43,-1,-1,45,-1,47,49,-1,-1,51,53,55,57,59,-1,-1,-1,-1,-1,-1,-1,-1,-1,-1,-1,-1,-1,-1,-1,-1,-1,-1,-1,-1,-1],"loss_changes":[4.0621223E0,3.490593E0,1.3542016E0,3.7540512E0,4.4163E0,7.9822224E-1,3.3586097E-1,2.4755516E0,1.5744706E0,8.5402775E-1,1.6104009E0,1.2677002E0,1.1745687E0,0E0,4.1434646E-1,2.116642E0,3.2219772E0,0E0,2.9704285E-1,4.371128E-1,0E0,1.9611478E0,0E0,1.2826625E0,0E0,1.1702332E0,2.1453767E0,0E0,0E0,5.034025E0,0E0,2.2960083E0,3.9432487E0,0E0,0E0,2.0120811E-1,2.5094752E0,2.3048754E0,4.0063286E-1,1.710258E-1,0E0,0E0,0E0,0E0,0E0,0E0,0E0,0E0,0E0,0E0,0E0,0E0,0E0,0E0,0E0,0E0,0E0,0E0,0E0,0E0,0E0],"parents":[2147483647,0,0,1,1,2,2,3,3,4,4,5,5,6,6,7,7,8,8,9,9,10,10,11,11,12,12,14,14,15,15,16,16,18,18,19,19,21,21,23,23,25,25,26,26,29,29,31,31,32,32,35,35,36,36,37,37,38,38,39,39],"right_children":[2,4,6,8,10,12,14,16,18,20,22,24,26,-1,28,30,32,-1,34,36,-1,38,-1,40,-1,42,44,-1,-1,46,-1,48,50,-1,-1,52,54,56,58,60,-1,-1,-1,-1,-1,-1,-1,-1,-1,-1,-1,-1,-1,-1,-1,-1,-1,-1,-1,-1,-1],"split_conditions":[1.793E1,1.7087E1,6.467066E1,1.6804E1,1.7621E1,1.8144E1,1.802E1,2.01704E7,-2.3E-1,1.7776E1,4.897959E1,2.7493988E5,-1.3E-1,1.5140538E-3,1.906E1,1.67E1,2.018083E7,3.9242268E-2,6.752137E1,2.8637925E6,1.1915037E-2,1.762E1,6.766104E-2,2.3503716E5,-5.504771E-2,1.844E1,1.914E1,-6.0427427E-2,-5.756861E-5,6.9421486E1,9.283355E-2,4.716981E1,2.2872E0,-6.638441E-2,-1.2002209E-2,1.654E1,1.649E1,1.7166E1,1.787E1,5.423729E1,7.0401296E-2,-5.2120995E-2,3.9711956E-2,8.128161E-2,-4.1518573E-2,4.0102713E-2,-4.196001E-2,-4.8225727E-3,2.1678157E-2,2.5155684E-2,-2.4442885E-2,4.485459E-2,1.0586651E-1,9.092232E-2,-4.648178E-2,-3.1915467E-2,6.699237E-2,-6.2844516E-3,-5.6663167E-2,-4.0796664E-2,2.8070796E-3],"split_indices":[0,15,16,15,15,14,3,9,5,13,16,7,5,0,4,2,9,0,16,7,0,1,0,7,0,2,3,0,0,16,0,16,6,0,0,0,0,13,15,16,0,0,0,0,0,0,0,0,0,0,0,0,0,0,0,0,0,0,0,0,0],"split_type":[0,0,0,0,0,0,0,0,0,0,0,0,0,0,0,0,0,0,0,0,0,0,0,0,0,0,0,0,0,0,0,0,0,0,0,0,0,0,0,0,0,0,0,0,0,0,0,0,0,0,0,0,0,0,0,0,0,0,0,0,0],"sum_hessian":[7.90703E2,7.6423846E2,2.6464542E1,7.25639E2,3.8599506E1,1.7024132E1,9.440411E0,7.165555E2,9.083469E0,2.0533812E1,1.8065693E1,8.009731E0,9.014401E0,1.3029548E0,8.137455E0,9.2736145E1,6.2381934E2,1.3751718E0,7.7082977E0,1.8616705E1,1.9171075E0,1.4664582E1,3.4011114E0,4.0325575E0,3.9771733E0,3.9221425E0,5.092259E0,6.804463E0,1.3329926E0,8.702584E1,5.710304E0,1.338876E2,4.8993173E2,5.938073E0,1.7702247E0,1.4844331E1,3.7723744E0,8.130341E0,6.5342417E0,2.5694737E0,1.4630839E0,2.5529013E0,1.3692412E0,3.7895675E0,1.3026915E0,7.959528E1,7.4305577E0,7.9864815E1,5.4022793E1,4.7410248E2,1.5829256E1,2.827729E0,1.2016602E1,2.3716478E0,1.4007266E0,3.091549E0,5.0387917E0,2.7778242E0,3.7564178E0,1.2843692E0,1.2851045E0],"tree_param":{"num_deleted":"0","num_feature":"17","num_nodes":"61","size_leaf_vector":"1"}},{"base_weights":[2.7771163E-1,2.6178694E-1,6.680497E-1,1.372492E-1,2.8867948E-1,1.7130698E-1,7.125317E-1,9.430772E-2,4.2100838E-1,2.2829431E-1,3.7119693E-1,3.377795E-2,-6.637908E-3,7.764398E-1,2.3175828E-1,1.8505204E-1,-3.4219876E-1,5.719434E-1,-2.722707E-1,2.6593024E-1,-2.8722717E-3,3.3584628E-1,5.8274305E-1,3.8782504E-1,8.2912046E-1,-1.438083E-2,5.1977616E-2,1.1076427E-1,8.2885164E-1,-4.9328807E-1,-1.0252616E-2,3.0288413E-1,8.2832485E-1,4.050543E-3,-4.3649297E-2,1.9820778E-1,4.6769503E-1,-1.3142632E-1,4.3724912E-1,4.0321037E-1,1.2945332E-1,6.260859E-1,-1.549113E-2,5.1653404E-3,6.779104E-2,1.0319849E-1,5.848943E-1,1.5147917E-2,-4.708064E-2,-3.376629E-3,9.6573524E-2,-2.8920805E-3,-5.9738647E-2,-5.2595045E-2,2.9995808E-2,9.6776955E-2,-1.6559256E-2,2.4410821E-2,9.743805E-2,2.308078E-2,-2.2480981E-2,8.518409E-2,3.7925143E-2,-3.2839242E-2,2.8169636E-2,8.215704E-2,4.107223E-3,3.6687773E-2,8.311757E-2,-2.7107164E-2,2.623847E-2,1.6036153E-2,7.19185E-2,8.5531585E-2,6.874807E-4],"categories":[],"categories_nodes":[],"categories_segments":[],"categories_sizes":[],"default_left":[0,0,0,0,0,0,0,0,0,0,0,0,0,0,0,0,0,0,0,0,0,0,0,0,0,0,0,0,0,0,0,0,0,0,0,0,0,0,0,0,0,0,0,0,0,0,0,0,0,0,0,0,0,0,0,0,0,0,0,0,0,0,0,0,0,0,0,0,0,0,0,0,0,0,0],"id":11,"left_children":[1,3,5,7,9,11,13,15,17,19,21,-1,-1,23,25,27,29,31,33,35,37,39,41,43,45,-1,-1,47,49,51,53,55,57,-1,-1,59,61,63,65,67,69,71,-1,-1,-1,-1,73,-1,-1,-1,-1,-1,-1,-1,-1,-1,-1,-1,-1,-1,-1,-1,-1,-1,-1,-1,-1,-1,-1,-1,-1,-1,-1,-1,-1],"loss_changes":[4.7942085E0,2.5382423E0,5.560789E-1,1.649138E0,3.0649605E0,1.7431998E-1,6.7580605E-1,4.882763E0,2.0317993E0,3.1989727E0,1.7898407E0,0E0,0E0,1.7302704E-1,5.824288E-1,4.7568007E0,1.0627885E0,7.8700733E-1,2.171269E-1,4.2270947E0,3.0255425E0,3.1435623E0,1.2689295E0,4.2944366E-1,4.0689087E-1,0E0,0E0,2.2508273E0,1.2527895E0,6.889932E-1,1.3865368E0,2.9380255E0,3.7036657E-1,0E0,0E0,3.339963E0,2.3511982E0,3.4587328E0,1.8070457E0,2.3822613E0,3.160964E0,1.3943834E0,0E0,0E0,0E0,0E0,1.8014517E0,0E0,0E0,0E0,0E0,0E0,0E0,0E0,0E0,0E0,0E0,0E0,0E0,0E0,0E0,0E0,0E0,0E0,0E0,0E0,0E0,0E0,0E0,0E0,0E0,0E0,0E0,0E0,0E0],"parents":[2147483647,0,0,1,1,2,2,3,3,4,4,5,5,6,6,7,7,8,8,9,9,10,10,13,13,14,14,15,15,16,16,17,17,18,18,19,19,20,20,21,21,22,22,23,23,24,24,27,27,28,28,29,29,30,30,31,31,32,32,35,35,36,36,37,37,38,38,39,39,40,40,41,41,46,46],"right_children":[2,4,6,8,10,12,14,16,18,20,22,-1,-1,24,26,28,30,32,34,36,38,40,42,44,46,-1,-1,48,50,52,54,56,58,-1,-1,60,62,64,66,68,70,72,-1,-1,-1,-1,74,-1,-1,-1,-1,-1,-1,-1,-1,-1,-1,-1,-1,-1,-1,-1,-1,-1,-1,-1,-1,-1,-1,-1,-1,-1,-1,-1,-1],"split_conditions":[1.793E1,2.01704E7,1.8004294E5,1.76805E1,2E-2,1.7896E1,1.8938E1,1.7087E1,4.897959E1,6.2162163E1,1.2664E1,3.377795E-2,-6.637908E-3,-3.5E-1,-1E-2,1.6804E1,2.5504528E6,1.762E1,1.883998E5,1.171E1,7.419355E1,1.1005E1,3.7E-1,9.371226E5,-1E-2,-1.438083E-2,5.1977616E-2,1.67E1,-2.3E-1,2.9487222E5,1.649E1,1.7166E1,1.787E1,4.050543E-3,-4.3649297E-2,1.113E1,1.221E1,2.0210328E7,-3.347E-1,1.0773E1,1.1358E1,2.6566347E5,-1.549113E-2,5.1653404E-3,6.779104E-2,1.0319849E-1,1.8092E1,1.5147917E-2,-4.708064E-2,-3.376629E-3,9.6573524E-2,-2.8920805E-3,-5.9738647E-2,-5.2595045E-2,2.9995808E-2,9.6776955E-2,-1.6559256E-2,2.4410821E-2,9.743805E-2,2.308078E-2,-2.2480981E-2,8.518409E-2,3.7925143E-2,-3.2839242E-2,2.8169636E-2,8.215704E-2,4.107223E-3,3.6687773E-2,8.311757E-2,-2.7107164E-2,2.623847E-2,1.6036153E-2,7.19185E-2,8.5531585E-2,6.874807E-4],"split_indices":[0,9,7,15,5,14,15,15,16,16,13,0,0,5,5,15,7,1,7,4,16,14,5,7,5,0,0,2,5,8,0,13,15,0,0,2,0,9,6,14,13,8,0,0,0,0,13,0,0,0,0,0,0,0,0,0,0,0,0,0,0,0,0,0,0,0,0,0,0,0,0,0,0,0,0],"split_type":[0,0,0,0,0,0,0,0,0,0,0,0,0,0,0,0,0,0,0,0,0,0,0,0,0,0,0,0,0,0,0,0,0,0,0,0,0,0,0,0,0,0,0,0,0,0,0,0,0,0,0,0,0,0,0,0,0,0,0,0,0,0,0,0,0,0,0,0,0,0,0,0,0,0,0],"sum_hessian":[7.98402E2,7.6871136E2,2.9690594E1,1.3759964E2,6.3111176E2,2.838905E0,2.685169E1,1.2067079E2,1.6928844E1,3.666031E2,2.6450864E2,1.4219043E0,1.4170007E0,2.3158325E1,3.6933634E0,1.0037925E2,2.0291546E1,1.4045904E1,2.8829415E0,3.1514447E2,5.1458622E1,2.2885341E2,3.5655224E1,3.7627912E0,1.9395535E1,1.8203626E0,1.873001E0,9.1045586E1,9.333663E0,1.3610509E1,6.681037E0,7.9178767E0,6.128027E0,1.251912E0,1.6310296E0,2.3743253E2,7.771196E1,4.0368782E1,1.1089838E1,1.7181992E2,5.7033497E1,3.381933E1,1.8358963E0,2.288628E0,1.4741633E0,8.83297E0,1.0562565E1,8.57798E1,5.265783E0,1.3814311E0,7.952232E0,2.726377E0,1.0884131E1,2.248178E0,4.432859E0,2.832323E0,5.0855536E0,1.7598867E0,4.36814E0,2.208658E2,1.6566729E1,1.2928195E1,6.478376E1,2.7474672E1,1.289411E1,5.084117E0,6.0057206E0,1.6008643E2,1.1733484E1,1.3953159E1,4.3080338E1,6.087808E0,2.7731522E1,6.8691545E0,3.6934104E0],"tree_param":{"num_deleted":"0","num_feature":"17","num_nodes":"75","size_leaf_vector":"1"}},{"base_weights":[-5.492092E-1,-1.5779184E-1,-5.556159E-1,-4.2937514E-1,1.359065E-1,-4.741755E-1,-5.699154E-1,-5.4886427E-2,3.6056717E-3,7.62028E-2,-1.8467505E-1,-4.8984465E-1,4.0475633E-2,-6.044327E-2,-5.395022E-1,-4.6423633E-2,1.42334895E-2,-5.02961E-1,-3.6872882E-2,-2.1751772E-1,-5.505322E-1,-7.063248E-3,-5.096387E-1,3.99975E-2,-4.221294E-2,-3.8179588E-1,1.8572992E-1,5.266599E-3,-5.532963E-1,-4.327604E-2,-5.81253E-2,-3.8071305E-3,-5.5687267E-2,-9.7231995E-3,4.3849587E-2,-4.8602175E-2,-5.9005648E-2],"categories":[],"categories_nodes":[],"categories_segments":[],"categories_sizes":[],"default_left":[0,0,0,0,0,0,0,0,0,0,0,0,0,0,0,0,0,0,0,0,0,0,0,0,0,0,0,0,0,0,0,0,0,0,0,0,0],"id":12,"left_children":[1,3,5,7,9,11,13,-1,-1,-1,15,17,-1,-1,19,-1,-1,21,23,25,27,-1,29,-1,-1,31,33,-1,35,-1,-1,-1,-1,-1,-1,-1,-1],"loss_changes":[1.5789337E0,1.0234643E0,4.9079895E-1,3.8277853E-1,1.4600215E0,1.6244736E0,2.5227356E-1,0E0,0E0,0E0,5.3706247E-1,5.886326E-1,0E0,0E0,9.5347595E-1,0E0,0E0,2.5051117E-1,8.344689E-1,8.434729E-1,5.1519775E-1,0E0,2.856369E-1,0E0,0E0,4.9715602E-1,3.3219942E-1,0E0,4.3109894E-1,0E0,0E0,0E0,0E0,0E0,0E0,0E0,0E0],"parents":[2147483647,0,0,1,1,2,2,3,3,4,4,5,5,6,6,10,10,11,11,14,14,17,17,18,18,19,19,20,20,22,22,25,25,26,26,28,28],"right_children":[2,4,6,8,10,12,14,-1,-1,-1,16,18,-1,-1,20,-1,-1,22,24,26,28,-1,30,-1,-1,32,34,-1,36,-1,-1,-1,-1,-1,-1,-1,-1],"split_conditions":[6.84E0,2.8776978E1,7.86E0,2.234251E5,3.2037037E1,7.76E0,1.1368E1,-5.4886427E-2,3.6056717E-3,7.62028E-2,2.843822E5,3.9398744E5,4.0475633E-2,-6.044327E-2,1.14605E1,-4.6423633E-2,1.42334895E-2,-1.81E0,6.270573E5,5.0512162E5,1.107E1,-7.063248E-3,7.227E0,3.99975E-2,-4.221294E-2,1.145E1,1.156E1,5.266599E-3,2.7749878E5,-4.327604E-2,-5.81253E-2,-3.8071305E-3,-5.5687267E-2,-9.7231995E-3,4.3849587E-2,-4.8602175E-2,-5.9005648E-2],"split_indices":[0,16,1,8,16,2,15,0,0,0,7,8,0,0,15,0,0,6,7,7,14,0,14,0,0,1,0,0,7,0,0,0,0,0,0,0,0],"split_type":[0,0,0,0,0,0,0,0,0,0,0,0,0,0,0,0,0,0,0,0,0,0,0,0,0,0,0,0,0,0,0,0,0,0,0,0,0],"sum_hessian":[6.6359515E2,1.1099628E1,6.5249554E2,5.5269184E0,5.57271E0,1.0255735E2,5.499382E2,4.255227E0,1.271691E0,1.4207851E0,4.1519246E0,1.0119596E2,1.3613888E0,2.4874852E2,3.0118967E2,2.0121205E0,2.1398044E0,9.824092E1,2.9550428E0,1.06622305E1,2.9052744E2,1.670448E0,9.657047E1,1.3668957E0,1.588147E0,7.6137E0,3.0485308E0,1.2428932E0,2.8928455E2,4.9970154E1,4.660032E1,2.9801965E0,4.633503E0,1.7286739E0,1.319857E0,1.0724224E2,1.8204231E2],"tree_param":{"num_deleted":"0","num_feature":"17","num_nodes":"37","size_leaf_vector":"1"}},{"base_weights":[1.9901979E-1,2.1117146E-1,-1.5528953E-1,1.9630086E-1,4.7831652E-1,1.1158035E-2,-4.3194613E-1,2.0386147E-1,-3.7588984E-1,7.542289E-1,1.355387E-1,-1.9404715E-1,1.9079961E-1,1.5893396E-3,-4.9949428E-1,3.2540223E-1,1.7760774E-1,3.6900476E-2,-5.4204875E-1,8.115396E-1,1.0576743E-2,-1.3606829E-2,6.2915504E-2,1.6854997E-1,-5.3215276E-2,-1.2092357E-1,5.086009E-1,-5.881821E-2,2.6601247E-4,-4.677658E-2,3.9092004E-1,-1.9021621E-1,1.9532147E-1,-6.385323E-2,-1.068909E-2,9.375055E-1,4.6503812E-1,2.7792037E-1,-3.7469092E-1,-2.3445624E-1,6.754783E-2,-4.8187345E-2,2.0493084E-1,6.841375E-2,1.317159E-4,2.0303493E-2,-4.4670496E-2,4.8952803E-2,-7.245232E-4,3.1168444E-2,-3.1678263E-2,1.869493E-2,8.587431E-2,4.1853312E-2,1.0364439E-1,-4.6485204E-2,7.6342635E-2,-3.0418644E-2,6.1354794E-2,-5.6497782E-2,-7.0673674E-3,3.3826057E-3,-4.0024612E-2,3.5249077E-2,-3.1851213E-3],"categories":[],"categories_nodes":[],"categories_segments":[],"categories_sizes":[],"default_left":[0,0,0,0,0,0,0,0,0,0,0,0,0,0,0,0,0,0,0,0,0,0,0,0,0,0,0,0,0,0,0,0,0,0,0,0,0,0,0,0,0,0,0,0,0,0,0,0,0,0,0,0,0,0,0,0,0,0,0,0,0,0,0,0,0],"id":13,"left_children":[1,3,5,7,9,11,13,15,17,19,21,23,25,-1,27,29,31,-1,33,35,-1,37,-1,39,-1,41,43,-1,-1,45,47,49,51,-1,-1,53,55,57,59,61,-1,-1,63,-1,-1,-1,-1,-1,-1,-1,-1,-1,-1,-1,-1,-1,-1,-1,-1,-1,-1,-1,-1,-1,-1],"loss_changes":[3.4645844E0,2.9692764E0,1.2484624E0,3.2438164E0,3.6772795E0,6.9455427E-1,3.155918E-1,2.249899E0,1.4252483E0,7.288561E-1,1.4103557E0,1.1712177E0,1.0536586E0,0E0,3.9650178E-1,3.1216078E0,3.9265594E0,0E0,2.885723E-1,4.366064E-1,0E0,1.7464299E0,0E0,1.1831563E0,0E0,7.8843564E-1,4.5780528E-1,0E0,0E0,2.0831802E0,4.2565804E0,1.8731782E0,3.0054588E0,0E0,0E0,2.684946E-1,2.3843672E0,1.9852713E0,3.878839E-1,1.7085402E-1,0E0,0E0,1.4341559E-1,0E0,0E0,0E0,0E0,0E0,0E0,0E0,0E0,0E0,0E0,0E0,0E0,0E0,0E0,0E0,0E0,0E0,0E0,0E0,0E0,0E0,0E0],"parents":[2147483647,0,0,1,1,2,2,3,3,4,4,5,5,6,6,7,7,8,8,9,9,10,10,11,11,12,12,14,14,15,15,16,16,18,18,19,19,21,21,23,23,25,25,26,26,29,29,30,30,31,31,32,32,35,35,36,36,37,37,38,38,39,39,42,42],"right_children":[2,4,6,8,10,12,14,16,18,20,22,24,26,-1,28,30,32,-1,34,36,-1,38,-1,40,-1,42,44,-1,-1,46,48,50,52,-1,-1,54,56,58,60,62,-1,-1,64,-1,-1,-1,-1,-1,-1,-1,-1,-1,-1,-1,-1,-1,-1,-1,-1,-1,-1,-1,-1,-1,-1],"split_conditions":[1.793E1,1.7087E1,6.467066E1,1.6804E1,1.7621E1,1.8144E1,1.802E1,1.8666855E5,-2.3E-1,1.7776E1,4.897959E1,2.7493988E5,4.8672565E1,1.5893396E-3,1.906E1,1.19766055E5,1.9864647E5,3.6900476E-2,6.752137E1,2.3E-1,1.0576743E-2,1.762E1,6.2915504E-2,2.3503716E5,-5.3215276E-2,1.8938E1,1.914E1,-5.881821E-2,2.6601247E-4,7.28E0,1.634E1,3.3516E0,1.67E1,-6.385323E-2,-1.068909E-2,1.634E1,3.7E-1,1.7166E1,1.746E1,-5E-2,6.754783E-2,-4.8187345E-2,-1.2E-1,6.841375E-2,1.317159E-4,2.0303493E-2,-4.4670496E-2,4.8952803E-2,-7.245232E-4,3.1168444E-2,-3.1678263E-2,1.869493E-2,8.587431E-2,4.1853312E-2,1.0364439E-1,-4.6485204E-2,7.6342635E-2,-3.0418644E-2,6.1354794E-2,-5.6497782E-2,-7.0673674E-3,3.3826057E-3,-4.0024612E-2,3.5249077E-2,-3.1851213E-3],"split_indices":[0,15,16,15,15,14,3,7,5,13,16,7,16,0,4,8,7,0,16,5,0,1,0,7,0,15,3,0,0,1,3,11,2,0,0,4,5,13,2,5,0,0,5,0,0,0,0,0,0,0,0,0,0,0,0,0,0,0,0,0,0,0,0,0,0],"split_type":[0,0,0,0,0,0,0,0,0,0,0,0,0,0,0,0,0,0,0,0,0,0,0,0,0,0,0,0,0,0,0,0,0,0,0,0,0,0,0,0,0,0,0,0,0,0,0,0,0,0,0,0,0,0,0,0,0,0,0,0,0,0,0,0,0],"sum_hessian":[7.9607947E2,7.700724E2,2.6007053E1,7.3111005E2,3.896237E1,1.6836946E1,9.170106E0,7.222109E2,8.899173E0,2.0921595E1,1.8040777E1,7.821841E0,9.015106E0,1.3020853E0,7.868021E0,1.2626705E2,5.959438E2,1.400391E0,7.4987817E0,1.8991638E1,1.9299567E0,1.4601414E1,3.4393632E0,4.016202E0,3.8056383E0,4.8638144E0,4.151292E0,6.5413976E0,1.3266233E0,1.8943441E1,1.0732361E2,2.6933512E1,5.690103E2,5.7553453E0,1.7434361E0,1.2677334E1,6.3143034E0,8.206266E0,6.3951473E0,2.5368843E0,1.4793179E0,2.080471E0,2.7833436E0,2.8250904E0,1.3262012E0,1.1963115E1,6.9803257E0,8.583628E1,2.1487328E1,5.1295614E0,2.1803951E1,5.631849E2,5.825427E0,2.8673205E0,9.810014E0,1.3984206E0,4.9158826E0,3.0353994E0,5.1708665E0,3.4053416E0,2.9898057E0,1.2729532E0,1.2639312E0,1.4136814E0,1.3696623E0],"tree_param":{"num_deleted":"0","num_feature":"17","num_nodes":"65","size_leaf_vector":"1"}},{"base_weights":[2.5594002E-1,2.4121428E-1,6.174485E-1,1.1677534E-1,2.677524E-1,1.4986938E-1,6.599306E-1,4.4708318E-1,6.0361277E-2,6.826131E-1,2.472444E-1,3.1767856E-2,-8.138058E-3,4.9383092E-1,8.7547016E-1,-3.032886E-2,8.6081743E-1,1.9162509E-1,-2.4546568E-1,5.0236666E-1,1.0726657E0,2.683473E-1,1.2449235E-2,5.830924E-1,6.741999E-2,9.2779465E-2,3.1447615E-2,1.8902725E-1,-5.4832518E-2,1.5399039E-4,9.8199433E-1,-4.542516E-1,2.5976634E-1,1.1483287E-1,-5.14698E-1,5.910483E-1,-4.6869498E-2,3.891488E-2,1.1508476E-1,1.9821665E-1,3.2882303E-1,-1.5999994E-1,4.464753E-1,6.996741E-2,7.201437E-1,-1.9335663E-2,3.5041403E-2,-5.3764563E-2,5.7543207E-2,3.4739807E-2,1.1407675E-1,4.2431117E-3,-6.5290436E-2,-8.604588E-3,3.729796E-2,7.580353E-2,-7.1670725E-3,-1.6096113E-2,-6.635871E-2,6.7353114E-2,-1.6166758E-2,-7.2660977E-3,2.5745878E-2,3.530092E-2,1.0257258E-2,4.3433546E-3,-4.373565E-2,5.8221925E-2,-4.2415418E-2,-4.1340183E-2,4.2282954E-2,9.136789E-2,4.01692E-2],"categories":[],"categories_nodes":[],"categories_segments":[],"categories_sizes":[],"default_left":[0,0,0,0,0,0,0,0,0,0,0,0,0,0,0,0,0,0,0,0,0,0,0,0,0,0,0,0,0,0,0,0,0,0,0,0,0,0,0,0,0,0,0,0,0,0,0,0,0,0,0,0,0,0,0,0,0,0,0,0,0,0,0,0,0,0,0,0,0,0,0,0,0],"id":14,"left_children":[1,3,5,7,9,11,13,15,17,19,21,-1,-1,23,25,27,29,31,33,35,37,39,41,43,45,-1,-1,47,-1,-1,49,51,53,55,57,59,-1,-1,-1,61,63,65,67,69,71,-1,-1,-1,-1,-1,-1,-1,-1,-1,-1,-1,-1,-1,-1,-1,-1,-1,-1,-1,-1,-1,-1,-1,-1,-1,-1,-1,-1],"loss_changes":[4.1434402E0,2.5326767E0,5.1523685E-1,2.549064E0,5.269081E0,1.7598912E-1,5.7184315E-1,3.978657E0,4.8335633E0,1.5378962E0,3.0221405E0,0E0,0E0,6.509514E-1,2.8586388E-2,1.269036E0,1.1182771E0,3.8143857E0,3.5750957E0,2.178792E0,3.9787292E-3,2.3107643E0,3.918832E0,9.950075E-1,3.8286564E-1,0E0,0E0,2.54133E0,0E0,0E0,5.531931E-1,8.544458E-1,3.0313754E0,2.0119364E0,9.9535894E-1,1.3927183E0,0E0,0E0,0E0,4.2217445E0,1.6015587E0,2.1361814E0,2.0055258E0,8.981695E-1,3.4940243E-1,0E0,0E0,0E0,0E0,0E0,0E0,0E0,0E0,0E0,0E0,0E0,0E0,0E0,0E0,0E0,0E0,0E0,0E0,0E0,0E0,0E0,0E0,0E0,0E0,0E0,0E0,0E0,0E0],"parents":[2147483647,0,0,1,1,2,2,3,3,4,4,5,5,6,6,7,7,8,8,9,9,10,10,13,13,14,14,15,15,16,16,17,17,18,18,19,19,20,20,21,21,22,22,23,23,24,24,27,27,30,30,31,31,32,32,33,33,34,34,35,35,39,39,40,40,41,41,42,42,43,43,44,44],"right_children":[2,4,6,8,10,12,14,16,18,20,22,-1,-1,24,26,28,30,32,34,36,38,40,42,44,46,-1,-1,48,-1,-1,50,52,54,56,58,60,-1,-1,-1,62,64,66,68,70,72,-1,-1,-1,-1,-1,-1,-1,-1,-1,-1,-1,-1,-1,-1,-1,-1,-1,-1,-1,-1,-1,-1,-1,-1,-1,-1,-1,-1],"split_conditions":[1.793E1,1.8666855E5,1.8004294E5,1.19766055E5,1.9864647E5,1.5006698E5,6.467066E1,7.23E0,2.0190326E7,5.591398E1,1.6261E1,3.1767856E-2,-8.138058E-3,1E-1,1.906E1,4.5528454E1,-5E-2,1.006E1,4.1029E0,4.9668873E1,2.8901E0,3.7054972E5,1.7601E1,-3.5E-1,1.849E1,9.2779465E-2,3.1447615E-2,3.297872E1,-5.4832518E-2,1.5399039E-4,7.24E0,9.51E0,2.0161028E7,-6E-2,7.38E0,1.626E1,-4.6869498E-2,3.891488E-2,1.1508476E-1,-7.2E-1,2.0077011E6,1.7087E1,4.897959E1,5.0256088E5,-1.3E-1,-1.9335663E-2,3.5041403E-2,-5.3764563E-2,5.7543207E-2,3.4739807E-2,1.1407675E-1,4.2431117E-3,-6.5290436E-2,-8.604588E-3,3.729796E-2,7.580353E-2,-7.1670725E-3,-1.6096113E-2,-6.635871E-2,6.7353114E-2,-1.6166758E-2,-7.2660977E-3,2.5745878E-2,3.530092E-2,1.0257258E-2,4.3433546E-3,-4.373565E-2,5.8221925E-2,-4.2415418E-2,-4.1340183E-2,4.2282954E-2,9.136789E-2,4.01692E-2],"split_indices":[0,7,7,8,7,7,16,4,9,16,14,0,0,5,4,16,5,3,11,16,11,8,15,5,0,0,0,16,0,0,3,4,9,5,1,4,0,0,0,6,7,15,16,7,5,0,0,0,0,0,0,0,0,0,0,0,0,0,0,0,0,0,0,0,0,0,0,0,0,0,0,0,0],"split_type":[0,0,0,0,0,0,0,0,0,0,0,0,0,0,0,0,0,0,0,0,0,0,0,0,0,0,0,0,0,0,0,0,0,0,0,0,0,0,0,0,0,0,0,0,0,0,0,0,0,0,0,0,0,0,0,0,0,0,0,0,0,0,0,0,0,0,0,0,0,0,0,0,0],"sum_hessian":[8.0531067E2,7.7539294E2,2.9917744E1,1.3724458E2,6.381483E2,2.8689065E0,2.7048838E1,1.9010706E1,1.1823389E2,2.8539127E1,6.096092E2,1.4459158E0,1.4229908E0,1.7135204E1,9.913633E0,9.256377E0,9.754329E0,8.298805E1,3.5245834E1,2.1083992E1,7.4551353E0,5.59206E2,5.040318E1,1.3865308E1,3.2698965E0,8.469806E0,1.4438275E0,6.948832E0,2.3075447E0,1.3307257E0,8.423603E0,7.3790865E0,7.560896E1,1.5318895E1,1.9926937E1,1.9678226E1,1.4057653E0,1.3787426E0,6.076393E0,2.6091437E2,2.9829166E2,3.652304E1,1.3880139E1,3.241085E0,1.0624223E1,1.8665931E0,1.4033033E0,2.27641E0,4.672422E0,2.3237762E0,6.0998273E0,2.3328269E0,5.04626E0,1.8707253E1,5.690171E1,2.754587E0,1.2564309E1,6.5192676E0,1.340767E1,1.7829649E1,1.8485781E0,4.6782127E1,2.1413225E2,2.6897763E2,2.9314018E1,2.155583E1,1.4967212E1,1.229451E1,1.585629E0,1.2952354E0,1.9458498E0,5.445597E0,5.178625E0],"tree_param":{"num_deleted":"0","num_feature":"17","num_nodes":"73","size_leaf_vector":"1"}},{"base_weights":[-5.3131205E-1,-1.4406525E-1,-5.377901E-1,-4.1496077E-1,1.4298859E-1,-4.560383E-1,-5.522655E-1,4.0829005E-3,-5.3555667E-2,7.360651E-2,-1.705381E-1,-4.7183737E-1,3.948997E-2,-5.8781826E-1,-5.211023E-1,-4.5387782E-2,1.5374391E-2,-4.85092E-1,-2.5625588E-2,-5.385605E-1,-6.176771E-1,-2.000845E-1,-5.3232926E-1,-5.4490525E-1,-3.9863586E-1,3.953887E-2,-4.091334E-2,-5.556974E-1,8.939724E-3,-6.240812E-2,-2.2923744E-1,3.2650184E-2,-3.2041883E-1,6.098987E-3,-5.351571E-1,-3.9255742E-2,-6.1989892E-2,-1.8334184E-2,-4.819971E-2,-1.7994842E-2,-5.9163164E-2,-4.301598E-2,5.9691608E-2,1.3117728E-2,-4.1834425E-2,-4.797352E-2,2.6909068E-2,-3.934292E-2,-5.529358E-2],"categories":[],"categories_nodes":[],"categories_segments":[],"categories_sizes":[],"default_left":[0,0,0,0,0,0,0,0,0,0,0,0,0,0,0,0,0,0,0,0,0,0,0,0,0,0,0,0,0,0,0,0,0,0,0,0,0,0,0,0,0,0,0,0,0,0,0,0,0],"id":15,"left_children":[1,3,5,7,9,11,13,-1,-1,-1,15,17,-1,19,21,-1,-1,23,25,27,29,31,33,35,37,-1,-1,39,41,-1,43,-1,45,-1,47,-1,-1,-1,-1,-1,-1,-1,-1,-1,-1,-1,-1,-1,-1],"loss_changes":[1.5265961E0,9.8366064E-1,4.9195862E-1,3.7209702E-1,1.3369492E0,1.5346298E0,2.800598E-1,0E0,0E0,0E0,5.359714E-1,5.7260513E-1,0E0,1.9454956E-2,9.4171906E-1,0E0,0E0,2.7926064E-1,7.9297686E-1,9.2593575E-1,2.1078491E-1,8.289147E-1,5.0312805E-1,3.7387085E-1,6.8309784E-1,0E0,0E0,1.178894E0,1.2800175E0,0E0,3.1985044E-1,0E0,1.0503244E0,0E0,4.8593903E-1,0E0,0E0,0E0,0E0,0E0,0E0,0E0,0E0,0E0,0E0,0E0,0E0,0E0,0E0],"parents":[2147483647,0,0,1,1,2,2,3,3,4,4,5,5,6,6,10,10,11,11,13,13,14,14,17,17,18,18,19,19,20,20,21,21,22,22,23,23,24,24,27,27,28,28,30,30,32,32,34,34],"right_children":[2,4,6,8,10,12,14,-1,-1,-1,16,18,-1,20,22,-1,-1,24,26,28,30,32,34,36,38,-1,-1,40,42,-1,44,-1,46,-1,48,-1,-1,-1,-1,-1,-1,-1,-1,-1,-1,-1,-1,-1,-1],"split_conditions":[6.84E0,2.8776978E1,7.86E0,-9E-2,3.2037037E1,7.76E0,1.1368E1,4.0829005E-3,-5.3555667E-2,7.360651E-2,2.023042E7,3.9398744E5,3.948997E-2,4.4871796E1,1.14605E1,-4.5387782E-2,1.5374391E-2,4.9462364E1,6.270573E5,4.408602E1,1.202E1,2.019043E7,1.078E1,1.4539436E5,7.175E0,3.953887E-2,-4.091334E-2,1.7234614E5,1.0207E1,-6.240812E-2,8.733892E5,3.2650184E-2,6.660891E5,6.098987E-3,3.9596E0,-3.9255742E-2,-6.1989892E-2,-1.8334184E-2,-4.819971E-2,-1.7994842E-2,-5.9163164E-2,-4.301598E-2,5.9691608E-2,1.3117728E-2,-4.1834425E-2,-4.797352E-2,2.6909068E-2,-3.934292E-2,-5.529358E-2],"split_indices":[0,16,1,5,16,2,15,0,0,0,9,8,0,16,15,0,0,16,7,16,3,9,4,8,14,0,0,8,15,0,7,0,7,0,11,0,0,0,0,0,0,0,0,0,0,0,0,0,0],"split_type":[0,0,0,0,0,0,0,0,0,0,0,0,0,0,0,0,0,0,0,0,0,0,0,0,0,0,0,0,0,0,0,0,0,0,0,0,0,0,0,0,0,0,0,0,0,0,0,0,0],"sum_hessian":[6.384279E2,1.0886664E1,6.2754126E2,5.371727E0,5.514937E0,9.929E1,5.282513E2,1.2623062E0,4.109421E0,1.4411391E0,4.0737977E0,9.791751E1,1.3724921E0,2.3840392E2,2.8984735E2,1.9608638E0,2.1129339E0,9.500817E1,2.9093351E0,9.715895E1,1.4124496E2,1.0430303E1,2.7941702E2,5.302267E1,4.1985504E1,1.372084E0,1.5372512E0,9.419564E1,2.963311E0,1.3835727E2,2.8876953E0,1.62146E0,8.808843E0,1.2278619E0,2.7818918E2,1.9547321E1,3.347535E1,1.2612088E1,2.9373415E1,8.746368E0,8.544927E1,1.8500808E0,1.11323E0,1.0991604E0,1.7885348E0,7.0813136E0,1.7275294E0,3.358511E1,2.4460406E2],"tree_param":{"num_deleted":"0","num_feature":"17","num_nodes":"49","size_leaf_vector":"1"}},{"base_weights":[1.845721E-1,1.9860847E-1,-8.131748E-2,1.7292091E-1,3.2115152E-1,-3.5613286E-1,1.489687E-1,1.8917502E-1,-1.3202448E-1,9.854069E-2,2.7768677E-1,1.11077376E-1,-5.5560005E-1,2.5809774E-1,-3.5599607E-1,1.59334E-1,3.259954E-1,6.125513E-1,-2.5107667E-1,-2.2363217E-1,3.2002175E-1,6.432564E-2,-3.4117797E-1,-6.9341935E-2,2.0639284E-2,-2.8604371E-2,3.5070854E-1,-5.1059138E-2,1.2371603E-3,4.3672112E-1,1.4103268E-1,2.5500596E-1,5.8646667E-1,8.4051676E-2,1.6961789E-2,-3.551067E-1,2.9709527E-1,1.5806927E-1,-6.319744E-2,3.664504E-1,-2.2269462E-1,-4.9259067E-2,-1.5939948E-3,7.59194E-1,1.07172E-1,1.01081274E-1,3.2871403E-2,-1.0700679E-2,1.58075E-2,4.1868113E-2,2.8132068E-4,1.4361225E-2,7.9992734E-2,1.7905243E-2,-4.610583E-2,-1.4409955E-2,5.80823E-2,5.5913527E-2,-5.0221235E-2,6.232915E-2,2.5776213E-2,3.523703E-2,-3.627674E-2,1.9419668E-2,9.536614E-2,-1.5782591E-2,4.9473714E-2],"categories":[],"categories_nodes":[],"categories_segments":[],"categories_sizes":[],"default_left":[0,0,0,0,0,0,0,0,0,0,0,0,0,0,0,0,0,0,0,0,0,0,0,0,0,0,0,0,0,0,0,0,0,0,0,0,0,0,0,0,0,0,0,0,0,0,0,0,0,0,0,0,0,0,0,0,0,0,0,0,0,0,0,0,0,0,0],"id":16,"left_children":[1,3,5,7,9,11,13,15,17,-1,19,21,23,25,27,29,31,33,35,37,39,-1,41,-1,-1,-1,43,-1,-1,45,47,49,51,-1,-1,53,55,57,-1,59,61,-1,-1,63,65,-1,-1,-1,-1,-1,-1,-1,-1,-1,-1,-1,-1,-1,-1,-1,-1,-1,-1,-1,-1,-1,-1],"loss_changes":[3.0071278E0,2.3415985E0,2.641137E0,3.1561623E0,3.502799E0,1.8267703E0,1.3568568E0,2.3984337E0,3.039734E0,0E0,2.7066498E0,1.783911E0,1.5545163E0,1.0807498E0,2.6255947E-1,2.449564E0,1.8197823E0,3.3995628E-1,1.7466052E0,1.6986191E0,2.9768744E0,0E0,1.9736916E-1,0E0,0E0,0E0,1.6172891E0,0E0,0E0,1.536552E0,1.9847403E0,3.526547E0,1.9686785E0,0E0,0E0,1.4772398E0,7.2645843E-1,1.8965609E0,0E0,2.8046904E0,9.0732884E-1,0E0,0E0,4.9748564E-1,1.296333E0,0E0,0E0,0E0,0E0,0E0,0E0,0E0,0E0,0E0,0E0,0E0,0E0,0E0,0E0,0E0,0E0,0E0,0E0,0E0,0E0,0E0,0E0],"parents":[2147483647,0,0,1,1,2,2,3,3,4,4,5,5,6,6,7,7,8,8,10,10,11,11,12,12,13,13,14,14,15,15,16,16,17,17,18,18,19,19,20,20,22,22,26,26,29,29,30,30,31,31,32,32,35,35,36,36,37,37,39,39,40,40,43,43,44,44],"right_children":[2,4,6,8,10,12,14,16,18,-1,20,22,24,26,28,30,32,34,36,38,40,-1,42,-1,-1,-1,44,-1,-1,46,48,50,52,-1,-1,54,56,58,-1,60,62,-1,-1,64,66,-1,-1,-1,-1,-1,-1,-1,-1,-1,-1,-1,-1,-1,-1,-1,-1,-1,-1,-1,-1,-1,-1],"split_conditions":[7.419355E1,6.1827957E1,7.703704E1,5.9292034E1,1.3713495E5,1.087E1,2.49E0,5.2542374E1,1.5772556E5,9.854069E-2,7.48E0,7.5118484E1,2.019103E7,2.0048925E5,1.2192364E6,-2.17E0,7.8E-1,-1E-2,6.8949344E5,7.1725E0,1.793E1,6.432564E-2,2.0210328E7,-6.9341935E-2,2.0639284E-2,-2.8604371E-2,3.63014E5,-5.1059138E-2,1.2371603E-3,8.14E0,7.086E0,2.947639E5,1.035E1,8.4051676E-2,1.6961789E-2,-8.4E-1,1.548E1,6.929825E1,-6.319744E-2,-3.686E-1,1.819E1,-4.9259067E-2,-1.5939948E-3,1.184E1,1.0942688E6,1.01081274E-1,3.2871403E-2,-1.0700679E-2,1.58075E-2,4.1868113E-2,2.8132068E-4,1.4361225E-2,7.9992734E-2,1.7905243E-2,-4.610583E-2,-1.4409955E-2,5.80823E-2,5.5913527E-2,-5.0221235E-2,6.232915E-2,2.5776213E-2,3.523703E-2,-3.627674E-2,1.9419668E-2,9.536614E-2,-1.5782591E-2,4.9473714E-2],"split_indices":[16,16,16,16,7,13,6,16,7,0,3,16,9,7,8,6,6,5,8,15,0,0,9,0,0,0,7,0,0,0,15,7,0,0,0,6,0,16,0,6,1,0,0,2,7,0,0,0,0,0,0,0,0,0,0,0,0,0,0,0,0,0,0,0,0,0,0],"split_type":[0,0,0,0,0,0,0,0,0,0,0,0,0,0,0,0,0,0,0,0,0,0,0,0,0,0,0,0,0,0,0,0,0,0,0,0,0,0,0,0,0,0,0,0,0,0,0,0,0,0,0,0,0,0,0,0,0,0,0,0,0,0,0,0,0,0,0],"sum_hessian":[8.0041406E2,7.605191E2,3.989493E1,6.307186E2,1.2980052E2,1.7939768E1,2.1955166E1,5.991619E2,3.1556711E1,6.6407676E0,1.2315975E2,5.5000873E0,1.243968E1,1.845557E1,3.499595E0,4.936579E2,1.0550401E2,3.7787063E0,2.7778006E1,9.257115E0,1.1390263E2,2.332754E0,3.1673334E0,1.0610571E1,1.8291091E0,2.3804429E0,1.6075129E1,2.1931071E0,1.3064877E0,2.9139364E1,4.6451852E2,8.4463234E1,2.1040777E1,1.9021224E0,1.876584E0,2.364327E1,4.134734E0,5.101419E0,4.155696E0,1.05225525E2,8.677114E0,1.8100983E0,1.3572352E0,5.2133574E0,1.0861771E1,3.2905097E0,2.5848854E1,2.9524874E1,4.3499365E2,5.082029E1,3.3642944E1,7.387382E0,1.3653396E1,3.7992516E0,1.9844019E1,1.8109064E0,2.3238277E0,3.2689757E0,1.8324432E0,2.9880434E1,7.534509E1,1.4027083E0,7.2744055E0,1.846685E0,3.3666725E0,6.8029943E0,4.058776E0],"tree_param":{"num_deleted":"0","num_feature":"17","num_nodes":"67","size_leaf_vector":"1"}},{"base_weights":[2.3623276E-1,2.2258526E-1,5.731182E-1,1.7595737E-1,2.825013E-1,1.2994003E-1,6.1413765E-1,1.1868103E-1,2.7189523E-1,1.1152909E-1,3.1947383E-1,2.9745126E-2,-9.133126E-3,4.6014848E-1,8.1406957E-1,2.3358524E-1,2.743457E-3,5.911742E-2,3.5916367E-1,6.1137684E-2,6.8417184E-2,3.872823E-1,2.260551E-1,6.203747E-2,5.420117E-1,8.6256854E-2,2.9601572E-2,1.9518638E-1,7.0417213E-1,-3.0446473E-1,5.0811715E-2,1.9347039E-1,-2.5747967E-1,5.805859E-1,2.4293606E-1,1.45593E-1,-3.4952247E-1,3.0292818E-1,5.0730616E-1,-1.729589E-1,2.6912397E-1,-4.0229846E-2,3.965368E-2,8.533936E-2,2.7212808E-1,2.7343621E-3,2.7238855E-2,9.13771E-2,1.2387702E-3,-5.393815E-2,-1.1869488E-2,2.8311599E-2,-2.6146497E-3,-2.9404953E-3,9.9977836E-2,6.60926E-2,-4.7577273E-2,-4.511371E-2,6.298297E-2,1.8965067E-2,8.783306E-2,2.317446E-3,5.8027875E-2,3.6308613E-2,-5.031822E-2,-5.1339686E-2,3.509782E-2,1.41576E-2,6.1757233E-2,-4.1578345E-2,5.847883E-2,-3.2819357E-2,2.880895E-2,5.092875E-2,-1.4699252E-2],"categories":[],"categories_nodes":[],"categories_segments":[],"categories_sizes":[],"default_left":[0,0,0,0,0,0,0,0,0,0,0,0,0,0,0,0,0,0,0,0,0,0,0,0,0,0,0,0,0,0,0,0,0,0,0,0,0,0,0,0,0,0,0,0,0,0,0,0,0,0,0,0,0,0,0,0,0,0,0,0,0,0,0,0,0,0,0,0,0,0,0,0,0,0,0],"id":17,"left_children":[1,3,5,7,9,11,13,15,17,19,21,-1,-1,23,25,27,29,31,33,35,-1,37,39,41,43,-1,-1,45,47,49,51,53,55,57,59,61,63,65,67,69,71,-1,-1,-1,73,-1,-1,-1,-1,-1,-1,-1,-1,-1,-1,-1,-1,-1,-1,-1,-1,-1,-1,-1,-1,-1,-1,-1,-1,-1,-1,-1,-1,-1,-1],"loss_changes":[3.605648E0,2.135025E0,4.833536E-1,2.3988142E0,2.117302E0,1.7145276E-1,4.9009228E-1,3.7135036E0,3.0354872E0,1.7499232E0,1.6829224E0,0E0,0E0,5.584135E-1,1.902628E-2,2.3926091E0,2.0797405E0,2.137282E0,2.8581667E0,2.0683084E0,0E0,1.471735E0,2.107905E0,8.161544E-1,1.0231371E0,0E0,0E0,1.6878839E0,1.4646716E0,7.6760495E-1,2.183719E0,6.323661E0,3.3317528E0,2.2857246E0,2.479156E0,2.5914707E0,1.3013693E0,3.9756613E0,2.524969E0,2.5053554E0,1.3254476E0,0E0,0E0,0E0,1.016221E0,0E0,0E0,0E0,0E0,0E0,0E0,0E0,0E0,0E0,0E0,0E0,0E0,0E0,0E0,0E0,0E0,0E0,0E0,0E0,0E0,0E0,0E0,0E0,0E0,0E0,0E0,0E0,0E0,0E0,0E0],"parents":[2147483647,0,0,1,1,2,2,3,3,4,4,5,5,6,6,7,7,8,8,9,9,10,10,13,13,14,14,15,15,16,16,17,17,18,18,19,19,21,21,22,22,23,23,24,24,27,27,28,28,29,29,30,30,31,31,32,32,33,33,34,34,35,35,36,36,37,37,38,38,39,39,40,40,44,44],"right_children":[2,4,6,8,10,12,14,16,18,20,22,-1,-1,24,26,28,30,32,34,36,-1,38,40,42,44,-1,-1,46,48,50,52,54,56,58,60,62,64,66,68,70,72,-1,-1,-1,74,-1,-1,-1,-1,-1,-1,-1,-1,-1,-1,-1,-1,-1,-1,-1,-1,-1,-1,-1,-1,-1,-1,-1,-1,-1,-1,-1,-1,-1,-1],"split_conditions":[1.793E1,2E-2,1.8004294E5,3.669071E5,2.0161028E7,1.7896E1,6.467066E1,4.342105E1,-1.5E0,1.787E1,8.357E-1,2.9745126E-2,-9.133126E-3,-3.5E-1,1.906E1,4.1739132E1,4.6258503E1,5.096154E1,-9.091E-1,1.728E1,6.8417184E-2,2.0210328E7,8.955E-1,5.0256088E5,-1.3E-1,8.6256854E-2,2.9601572E-2,8.624E0,2.3580345E5,-6.836E-1,5.076923E1,4.5088566E1,1.015E1,7E0,8E-2,1.649E1,4E-2,9.5385E0,2.841E-1,4.7681403E5,6.8915E0,-4.0229846E-2,3.965368E-2,8.533936E-2,5.7106394E5,2.7343621E-3,2.7238855E-2,9.13771E-2,1.2387702E-3,-5.393815E-2,-1.1869488E-2,2.8311599E-2,-2.6146497E-3,-2.9404953E-3,9.9977836E-2,6.60926E-2,-4.7577273E-2,-4.511371E-2,6.298297E-2,1.8965067E-2,8.783306E-2,2.317446E-3,5.8027875E-2,3.6308613E-2,-5.031822E-2,-5.1339686E-2,3.509782E-2,1.41576E-2,6.1757233E-2,-4.1578345E-2,5.847883E-2,-3.2819357E-2,2.880895E-2,5.092875E-2,-1.4699252E-2],"split_indices":[0,5,7,7,9,14,16,16,6,15,6,0,0,5,4,16,16,16,6,0,0,9,6,7,5,0,0,13,7,6,16,16,0,2,6,0,5,15,6,7,15,0,0,0,7,0,0,0,0,0,0,0,0,0,0,0,0,0,0,0,0,0,0,0,0,0,0,0,0,0,0,0,0,0,0],"split_type":[0,0,0,0,0,0,0,0,0,0,0,0,0,0,0,0,0,0,0,0,0,0,0,0,0,0,0,0,0,0,0,0,0,0,0,0,0,0,0,0,0,0,0,0,0,0,0,0,0,0,0,0,0,0,0,0,0,0,0,0,0,0,0,0,0,0,0,0,0,0,0,0,0,0,0],"sum_hessian":[8.109834E2,7.8100494E2,2.9978436E1,4.414198E2,3.395851E2,2.892743E0,2.7085693E1,2.778038E2,1.63616E2,6.1092297E1,2.7849283E2,1.4504279E0,1.4423151E0,1.7165901E1,9.919791E0,1.3901405E2,1.3878976E2,4.8075577E1,1.1554041E2,5.716836E1,3.9239368E0,1.5954243E2,1.1895039E2,3.2275817E0,1.3938319E1,8.462533E0,1.457258E0,1.2983461E2,9.179444E0,1.8056322E1,1.2073344E2,3.4025307E1,1.405027E1,3.839666E1,7.714375E1,4.7952118E1,9.216244E0,9.576301E1,6.3779423E1,1.1294647E1,1.0765575E2,1.2666252E0,1.9609566E0,5.467748E0,8.4705715E0,4.133144E1,8.8503174E1,6.7986736E0,2.3807707E0,7.132882E0,1.0923439E1,2.9377218E1,9.135622E1,2.7411812E1,6.613496E0,2.3088298E0,1.174144E1,1.3773822E0,3.701928E1,7.23729E1,4.770852E0,3.823694E1,9.7151785E0,1.3930312E0,7.8232126E0,4.7850323E0,9.0977974E1,1.5303806E1,4.8475616E1,8.895365E0,2.3992825E0,2.811238E0,1.0484451E2,5.2721767E0,3.1983945E0],"tree_param":{"num_deleted":"0","num_feature":"17","num_nodes":"75","size_leaf_vector":"1"}},{"base_weights":[-5.149233E-1,-1.3800034E-1,-5.214007E-1,-4.042322E-1,1.3891815E-1,-4.399358E-1,-5.359717E-1,4.161755E-3,-5.25056E-2,4.2877653E-1,-4.424274E-2,-4.5585123E-1,3.849497E-2,-5.7264334E-1,-5.040086E-1,-4.0564932E-2,9.30182E-2,-5.328869E-1,-3.5232002E-1,-5.226683E-1,-6.0311836E-1,-1.8492845E-1,-5.154235E-1,-3.76492E-1,-6.091326E-2,-3.822894E-1,1.7504437E-2,-5.400927E-1,1.4234587E-2,-6.095968E-2,-2.2227895E-1,3.1915277E-2,-3.040145E-1,6.908536E-3,-5.1831937E-1,3.7670713E-2,-4.596852E-2,-8.746445E-3,-4.3969348E-2,-1.6512904E-2,-5.768443E-2,-4.2254295E-2,5.833618E-2,1.3129704E-2,-4.1137137E-2,-4.6285044E-2,2.6325721E-2,-3.7568495E-2,-5.36452E-2],"categories":[],"categories_nodes":[],"categories_segments":[],"categories_sizes":[],"default_left":[0,0,0,0,0,0,0,0,0,0,0,0,0,0,0,0,0,0,0,0,0,0,0,0,0,0,0,0,0,0,0,0,0,0,0,0,0,0,0,0,0,0,0,0,0,0,0,0,0],"id":18,"left_children":[1,3,5,7,9,11,13,-1,-1,15,-1,17,-1,19,21,-1,-1,23,25,27,29,31,33,35,-1,37,-1,39,41,-1,43,-1,45,-1,47,-1,-1,-1,-1,-1,-1,-1,-1,-1,-1,-1,-1,-1,-1],"loss_changes":[1.4297943E0,9.2254907E-1,4.815979E-1,3.58387E-1,1.2857642E0,1.4525547E0,3.0691528E-1,0E0,0E0,2.4057577E0,0E0,5.7705116E-1,0E0,3.3935547E-2,9.238205E-1,0E0,0E0,4.030218E-1,7.6014614E-1,8.90295E-1,1.9984818E-1,7.707781E-1,4.9211884E-1,1.4262938E0,0E0,6.692662E-1,0E0,1.1643448E0,1.2258779E0,0E0,3.112418E-1,0E0,9.860336E-1,0E0,4.925537E-1,0E0,0E0,0E0,0E0,0E0,0E0,0E0,0E0,0E0,0E0,0E0,0E0,0E0,0E0],"parents":[2147483647,0,0,1,1,2,2,3,3,4,4,5,5,6,6,9,9,11,11,13,13,14,14,17,17,18,18,19,19,20,20,21,21,22,22,23,23,25,25,27,27,28,28,30,30,32,32,34,34],"right_children":[2,4,6,8,10,12,14,-1,-1,16,-1,18,-1,20,22,-1,-1,24,26,28,30,32,34,36,-1,38,-1,40,42,-1,44,-1,46,-1,48,-1,-1,-1,-1,-1,-1,-1,-1,-1,-1,-1,-1,-1,-1],"split_conditions":[6.84E0,2.8776978E1,7.86E0,-9E-2,4E-2,7.76E0,1.1368E1,4.161755E-3,-5.25056E-2,1.6327831E5,-4.424274E-2,4.9462364E1,3.849497E-2,4.4871796E1,1.14605E1,-4.0564932E-2,9.30182E-2,1.4539436E5,3.9398744E5,4.408602E1,1.202E1,2.019043E7,1.107E1,2.1978022E1,-6.091326E-2,-4E-2,1.7504437E-2,1.7234614E5,1.002E1,-6.095968E-2,1.202E1,3.1915277E-2,6.660891E5,6.908536E-3,3.9596E0,3.7670713E-2,-4.596852E-2,-8.746445E-3,-4.3969348E-2,-1.6512904E-2,-5.768443E-2,-4.2254295E-2,5.833618E-2,1.3129704E-2,-4.1137137E-2,-4.6285044E-2,2.6325721E-2,-3.7568495E-2,-5.36452E-2],"split_indices":[0,16,1,5,5,2,15,0,0,7,0,16,0,16,15,0,0,8,8,16,3,9,14,16,0,5,0,8,13,0,0,0,7,0,11,0,0,0,0,0,0,0,0,0,0,0,0,0,0],"split_type":[0,0,0,0,0,0,0,0,0,0,0,0,0,0,0,0,0,0,0,0,0,0,0,0,0,0,0,0,0,0,0,0,0,0,0,0,0,0,0,0,0,0,0,0,0,0,0,0,0],"sum_hessian":[6.1409985E2,1.0751773E1,6.033481E2,5.24726E0,5.5045133E0,9.627566E1,5.0707242E2,1.2585733E0,3.9886868E0,3.8482301E0,1.6562831E0,9.489217E1,1.3834822E0,2.2826543E2,2.78807E2,1.5161194E0,2.332111E0,5.2030277E1,4.2861893E1,9.3344025E1,1.3492139E2,1.0223752E1,2.6858325E2,1.8998497E1,3.303178E1,4.081739E1,2.0445037E0,9.040415E1,2.9398777E0,1.3207402E2,2.847377E0,1.6326908E0,8.591062E0,1.2114174E0,2.6737183E2,1.5387902E0,1.7459707E1,7.0634527E0,3.3753937E1,8.560224E0,8.1843925E1,1.8090665E0,1.1308112E0,1.0986686E0,1.7487084E0,6.8555775E0,1.7354839E0,3.260602E1,2.3476582E2],"tree_param":{"num_deleted":"0","num_feature":"17","num_nodes":"49","size_leaf_vector":"1"}},{"base_weights":[1.7166327E-1,1.8474513E-1,-7.888945E-2,1.6067405E-1,2.9937318E-1,-3.4396076E-1,1.4050929E-1,1.7594273E-1,-1.2857512E-1,9.199643E-1,2.5832587E-1,1.04008555E-1,-5.3925234E-1,2.4430926E-1,-3.4554884E-1,1.4830737E-1,3.021395E-1,5.8006483E-1,-2.4383347E-1,9.9989794E-2,3.3233795E-2,5.018862E-1,1.7419462E-1,6.1005015E-2,-3.334328E-1,-6.766086E-2,1.9940028E-2,-2.8319648E-2,3.340235E-1,-4.9958896E-2,1.5791198E-3,4.0438607E-1,1.312942E-1,1.4963855E-1,4.0844712E-1,7.969924E-2,1.586784E-2,-3.4410113E-1,2.7972004E-1,9.9259144E-1,3.1741354E-1,-1.0177567E-1,3.224102E-1,-4.8734758E-2,-7.671832E-4,7.158923E-1,1.02861665E-1,9.48062E-2,3.0182708E-2,1.2215831E-2,6.0064327E-2,3.4521025E-2,-2.3959702E-2,8.219529E-2,2.8553499E-2,1.6645884E-2,-4.4680726E-2,-1.41349165E-2,5.496586E-2,1.0879902E-1,3.2354254E-2,-6.1654516E-2,4.9215406E-2,-2.124904E-2,4.4991508E-2,-3.4448978E-2,4.591156E-2,1.8540582E-2,8.966426E-2,-1.4940207E-2,4.683328E-2],"categories":[],"categories_nodes":[],"categories_segments":[],"categories_sizes":[],"default_left":[0,0,0,0,0,0,0,0,0,0,0,0,0,0,0,0,0,0,0,0,0,0,0,0,0,0,0,0,0,0,0,0,0,0,0,0,0,0,0,0,0,0,0,0,0,0,0,0,0,0,0,0,0,0,0,0,0,0,0,0,0,0,0,0,0,0,0,0,0,0,0],"id":19,"left_children":[1,3,5,7,9,11,13,15,17,19,21,23,25,27,29,31,33,35,37,-1,-1,39,41,-1,43,-1,-1,-1,45,-1,-1,47,49,51,53,-1,-1,55,57,59,61,63,65,-1,-1,67,69,-1,-1,-1,-1,-1,-1,-1,-1,-1,-1,-1,-1,-1,-1,-1,-1,-1,-1,-1,-1,-1,-1,-1,-1],"loss_changes":[2.6530724E0,2.0636425E0,2.4121003E0,2.825636E0,3.1163454E0,1.6917624E0,1.2422328E0,2.0591087E0,2.7878227E0,3.30348E-2,2.471652E0,1.6454974E0,1.4723577E0,1.0172333E0,2.5571996E-1,2.1115942E0,1.6802435E0,3.149197E-1,1.5961586E0,0E0,0E0,2.539267E0,3.8922536E0,0E0,2.0387399E-1,0E0,0E0,0E0,1.4376884E0,0E0,0E0,1.4129858E0,1.9307575E0,3.5614367E0,2.9527082E0,0E0,0E0,1.3553252E0,6.623796E-1,1.6785908E-1,4.283389E0,2.155784E0,5.7765875E0,0E0,0E0,4.367032E-1,1.1608933E0,0E0,0E0,0E0,0E0,0E0,0E0,0E0,0E0,0E0,0E0,0E0,0E0,0E0,0E0,0E0,0E0,0E0,0E0,0E0,0E0,0E0,0E0,0E0,0E0],"parents":[2147483647,0,0,1,1,2,2,3,3,4,4,5,5,6,6,7,7,8,8,9,9,10,10,11,11,12,12,13,13,14,14,15,15,16,16,17,17,18,18,21,21,22,22,24,24,28,28,31,31,32,32,33,33,34,34,37,37,38,38,39,39,40,40,41,41,42,42,45,45,46,46],"right_children":[2,4,6,8,10,12,14,16,18,20,22,24,26,28,30,32,34,36,38,-1,-1,40,42,-1,44,-1,-1,-1,46,-1,-1,48,50,52,54,-1,-1,56,58,60,62,64,66,-1,-1,68,70,-1,-1,-1,-1,-1,-1,-1,-1,-1,-1,-1,-1,-1,-1,-1,-1,-1,-1,-1,-1,-1,-1,-1,-1],"split_conditions":[7.419355E1,6.1827957E1,7.703704E1,5.9292034E1,1.3713495E5,1.087E1,2.49E0,5.2542374E1,1.5772556E5,1.64705E1,6.432161E1,7.5118484E1,2.019103E7,2.0048925E5,1.147E1,-2.17E0,1.024E1,1.028E1,6.8949344E5,9.9989794E-2,3.3233795E-2,3.7054972E5,2.0180428E7,6.1005015E-2,1.3E-1,-6.766086E-2,1.9940028E-2,-2.8319648E-2,3.63014E5,-4.9958896E-2,1.5791198E-3,8.086E0,4.2E-1,3.0136356E5,1.084E1,7.969924E-2,1.586784E-2,-8.4E-1,1.548E1,6.347826E1,4.326988E5,3.5E-1,7.65E0,-4.8734758E-2,-7.671832E-4,1.184E1,1.0942688E6,9.48062E-2,3.0182708E-2,1.2215831E-2,6.0064327E-2,3.4521025E-2,-2.3959702E-2,8.219529E-2,2.8553499E-2,1.6645884E-2,-4.4680726E-2,-1.41349165E-2,5.496586E-2,1.0879902E-1,3.2354254E-2,-6.1654516E-2,4.9215406E-2,-2.124904E-2,4.4991508E-2,-3.4448978E-2,4.591156E-2,1.8540582E-2,8.966426E-2,-1.4940207E-2,4.683328E-2],"split_indices":[16,16,16,16,7,13,6,16,7,15,16,16,9,7,0,6,4,2,8,0,0,8,9,0,5,0,0,0,7,0,0,13,5,7,4,0,0,6,0,16,8,5,1,0,0,2,7,0,0,0,0,0,0,0,0,0,0,0,0,0,0,0,0,0,0,0,0,0,0,0,0],"split_type":[0,0,0,0,0,0,0,0,0,0,0,0,0,0,0,0,0,0,0,0,0,0,0,0,0,0,0,0,0,0,0,0,0,0,0,0,0,0,0,0,0,0,0,0,0,0,0,0,0,0,0,0,0,0,0,0,0,0,0,0,0,0,0,0,0,0,0,0,0,0,0],"sum_hessian":[8.039862E2,7.6434106E2,3.9645126E1,6.336754E2,1.3066565E2,1.7696716E1,2.194841E1,6.022747E2,3.140072E1,6.777951E0,1.23887695E2,5.5145636E0,1.2182154E1,1.8495893E1,3.4525177E0,4.9586276E2,1.0641193E2,3.8286145E0,2.7572107E1,5.3487797E0,1.4291713E0,3.0531986E1,9.335571E1,2.3738527E0,3.140711E0,1.0342845E1,1.8393081E0,2.374944E0,1.6120949E1,2.152361E0,1.300157E0,2.9472954E1,4.663898E2,4.4698467E1,6.1713455E1,1.9390461E0,1.8895682E0,2.342807E1,4.1440372E0,7.1450753E0,2.3386911E1,3.2729073E1,6.0626637E1,1.7960768E0,1.3446343E0,5.2881823E0,1.0832767E1,3.3690748E0,2.610388E1,4.5872107E2,7.668745E0,2.9825653E1,1.4872815E1,1.2837554E1,4.8875904E1,3.8196356E0,1.9608433E1,1.8049359E0,2.3391013E0,5.7053795E0,1.4396956E0,3.2874894E0,2.0099422E1,2.7770796E1,4.9582763E0,1.005494E1,5.0571697E1,1.8587289E0,3.4294534E0,6.7587776E0,4.073989E0],"tree_param":{"num_deleted":"0","num_feature":"17","num_nodes":"71","size_leaf_vector":"1"}},{"base_weights":[2.1870978E-1,2.0588203E-1,5.3804356E-1,9.775746E-2,2.2876868E-1,6.836267E-1,3.7551525E-1,3.9858705E-1,4.5900155E-2,5.999408E-1,2.1020596E-1,-4.261456E-3,7.556602E-1,6.915077E-1,2.1766117E-2,-4.4951916E-2,7.762108E-1,1.6731766E-1,-2.4060644E-1,4.317272E-1,9.679444E-2,2.2887032E-1,-1.0273068E-3,2.3755368E-2,7.960796E-1,-6.4799646E-3,8.431614E-2,-3.7219504E-1,7.506051E-2,-2.7285916E-1,3.9994755E-1,-1.452925E-4,8.8341475E-1,-4.4218686E-1,2.3038292E-1,1.04056016E-1,-5.021469E-1,5.1230985E-1,-4.6278916E-2,1.647903E-1,2.840414E-1,-1.5952626E-1,3.912691E-1,8.445551E-2,2.6033616E-2,-5.8282375E-2,2.1920002E-4,3.4780126E-2,-4.7745015E-2,7.153989E-2,-8.218661E-3,3.238236E-2,1.01895206E-1,3.6339152E-3,-6.369136E-2,-9.022104E-3,3.3383746E-2,7.140686E-2,-7.5033046E-3,-1.6041262E-2,-6.47472E-2,5.8747627E-2,-1.7474001E-2,-8.236906E-3,2.1831421E-2,3.0536402E-2,8.33013E-3,-2.1463536E-2,7.067803E-2,-4.776765E-2,5.1672548E-2],"categories":[],"categories_nodes":[],"categories_segments":[],"categories_sizes":[],"default_left":[0,0,0,0,0,0,0,0,0,0,0,0,0,0,0,0,0,0,0,0,0,0,0,0,0,0,0,0,0,0,0,0,0,0,0,0,0,0,0,0,0,0,0,0,0,0,0,0,0,0,0,0,0,0,0,0,0,0,0,0,0,0,0,0,0,0,0,0,0,0,0],"id":20,"left_children":[1,3,5,7,9,11,13,15,17,19,21,-1,23,25,27,29,31,33,35,37,-1,39,41,-1,43,-1,-1,45,-1,47,49,-1,51,53,55,57,59,61,-1,63,65,67,69,-1,-1,-1,-1,-1,-1,-1,-1,-1,-1,-1,-1,-1,-1,-1,-1,-1,-1,-1,-1,-1,-1,-1,-1,-1,-1,-1,-1],"loss_changes":[3.2332535E0,1.9237633E0,4.7458172E-1,2.1521773E0,4.3407097E0,8.2132435E-1,1.8653686E0,3.4394739E0,4.2078695E0,1.4601908E0,2.4405384E0,0E0,9.939289E-2,1.0700221E0,2.8547995E0,1.1527879E0,9.2117834E-1,3.358945E0,3.3036711E0,1.8680754E0,0E0,1.963831E0,3.2488723E0,0E0,1.0098028E-1,0E0,0E0,5.131203E-1,0E0,1.1058135E0,6.5075827E-1,0E0,4.0565634E-1,7.95426E-1,2.5988626E0,1.8441508E0,9.231248E-1,1.1991076E0,0E0,3.530251E0,1.2767296E0,1.9281671E0,1.8860404E0,0E0,0E0,0E0,0E0,0E0,0E0,0E0,0E0,0E0,0E0,0E0,0E0,0E0,0E0,0E0,0E0,0E0,0E0,0E0,0E0,0E0,0E0,0E0,0E0,0E0,0E0,0E0,0E0],"parents":[2147483647,0,0,1,1,2,2,3,3,4,4,5,5,6,6,7,7,8,8,9,9,10,10,12,12,13,13,14,14,15,15,16,16,17,17,18,18,19,19,21,21,22,22,24,24,27,27,29,29,30,30,32,32,33,33,34,34,35,35,36,36,37,37,39,39,40,40,41,41,42,42],"right_children":[2,4,6,8,10,12,14,16,18,20,22,-1,24,26,28,30,32,34,36,38,-1,40,42,-1,44,-1,-1,46,-1,48,50,-1,52,54,56,58,60,62,-1,64,66,68,70,-1,-1,-1,-1,-1,-1,-1,-1,-1,-1,-1,-1,-1,-1,-1,-1,-1,-1,-1,-1,-1,-1,-1,-1,-1,-1,-1,-1],"split_conditions":[1.793E1,1.8666855E5,1.8092E1,1.19766055E5,1.9864647E5,-3.5E-1,-1.3E-1,7.23E0,2.0190326E7,5.591398E1,1.6261E1,-4.261456E-3,1.7722E1,-6E-1,1.914E1,2E-2,-5E-2,1.006E1,4.1029E0,4.9668873E1,9.679444E-2,3.7054972E5,1.7601E1,2.3755368E-2,1.78845E1,-6.4799646E-3,8.431614E-2,1.849E1,7.506051E-2,-4.196E-1,3.968254E1,-1.452925E-4,7.24E0,9.51E0,2.0161028E7,-6E-2,7.38E0,1.626E1,-4.6278916E-2,-7.2E-1,2.0077011E6,2.01704E7,1.651E1,8.445551E-2,2.6033616E-2,-5.8282375E-2,2.1920002E-4,3.4780126E-2,-4.7745015E-2,7.153989E-2,-8.218661E-3,3.238236E-2,1.01895206E-1,3.6339152E-3,-6.369136E-2,-9.022104E-3,3.3383746E-2,7.140686E-2,-7.5033046E-3,-1.6041262E-2,-6.47472E-2,5.8747627E-2,-1.7474001E-2,-8.236906E-3,2.1831421E-2,3.0536402E-2,8.33013E-3,-2.1463536E-2,7.067803E-2,-4.776765E-2,5.1672548E-2],"split_indices":[0,7,13,8,7,5,5,4,9,16,14,0,13,5,3,5,5,3,11,16,0,8,15,0,15,0,0,0,0,6,16,0,3,4,9,5,1,4,0,6,7,9,2,0,0,0,0,0,0,0,0,0,0,0,0,0,0,0,0,0,0,0,0,0,0,0,0,0,0,0,0],"split_type":[0,0,0,0,0,0,0,0,0,0,0,0,0,0,0,0,0,0,0,0,0,0,0,0,0,0,0,0,0,0,0,0,0,0,0,0,0,0,0,0,0,0,0,0,0,0,0,0,0,0,0,0,0,0,0,0,0,0,0,0,0,0,0,0,0,0,0,0,0,0,0],"sum_hessian":[8.153453E2,7.854386E2,2.9906633E1,1.3813098E2,6.473077E2,1.40844345E1,1.5822199E1,1.9326975E1,1.18804E2,2.9338951E1,6.179687E2,1.3077818E0,1.2776652E1,7.8527765E0,7.969423E0,9.292916E0,1.0034059E1,8.37345E1,3.5069504E1,2.1626629E1,7.7123218E0,5.6772186E2,5.0246834E1,1.4223108E0,1.13543415E1,1.4072815E0,6.4454947E0,5.490799E0,2.4786239E0,6.4007297E0,2.892187E0,1.3351623E0,8.698895E0,7.2878933E0,7.64466E1,1.539019E1,1.9679314E1,2.0231361E1,1.3952677E0,2.6449896E2,3.032229E2,3.621022E1,1.4036611E1,9.883625E0,1.4707161E0,3.1576023E0,2.3331966E0,1.4132919E0,4.9874377E0,1.4558408E0,1.4363462E0,2.3569531E0,6.341943E0,2.3431547E0,4.9447384E0,1.8681341E1,5.7765263E1,2.8148913E0,1.2575299E1,6.499486E0,1.3179828E1,1.836687E1,1.8644904E0,4.698689E1,2.1751207E2,2.736361E2,2.95868E1,3.475177E1,1.4584532E0,1.4166933E0,1.2619918E1],"tree_param":{"num_deleted":"0","num_feature":"17","num_nodes":"71","size_leaf_vector":"1"}},{"base_weights":[-4.9962416E-1,-1.2960172E-1,-5.06131E-1,-3.903831E-1,1.3545878E-1,-4.2464873E-1,-5.208594E-1,4.5329295E-3,-5.1237233E-2,4.1259173E-1,-4.3121003E-2,-4.4063804E-1,3.728607E-2,-5.586851E-1,-4.8809692E-1,-3.9904192E-2,8.885388E-2,-5.17769E-1,-3.3834574E-1,-5.023125E-1,-5.870616E-1,-1.6967411E-1,-4.9973866E-1,-3.591566E-1,-5.9590813E-2,-3.6818036E-1,1.716832E-2,-1.9494566E-1,-5.20103E-1,-5.990972E-2,-3.4814972E-1,-3.9956677E-1,1.05829656E-1,-4.4379088E-1,-5.5031306E-1,3.647747E-2,-4.42944E-2,-1.543791E-2,-4.533482E-2,-4.743178E-2,2.3984553E-2,-5.5624243E-2,-3.6427822E-2,1.3038421E-2,-5.402283E-2,9.091908E-3,-5.3152747E-2,6.297007E-2,-2.712054E-2,-5.1143494E-2,-2.3761405E-2,-2.9385809E-2,-5.7999235E-2],"categories":[],"categories_nodes":[],"categories_segments":[],"categories_sizes":[],"default_left":[0,0,0,0,0,0,0,0,0,0,0,0,0,0,0,0,0,0,0,0,0,0,0,0,0,0,0,0,0,0,0,0,0,0,0,0,0,0,0,0,0,0,0,0,0,0,0,0,0,0,0,0,0],"id":21,"left_children":[1,3,5,7,9,11,13,-1,-1,15,-1,17,-1,19,21,-1,-1,23,25,27,29,31,33,35,-1,37,-1,39,41,-1,43,45,47,49,51,-1,-1,-1,-1,-1,-1,-1,-1,-1,-1,-1,-1,-1,-1,-1,-1,-1,-1],"loss_changes":[1.3586121E0,8.52382E-1,4.7601318E-1,3.4680855E-1,1.1953181E0,1.3674107E0,3.315735E-1,0E0,0E0,2.2326481E0,0E0,5.582104E-1,0E0,5.608368E-2,9.13147E-1,0E0,0E0,4.1940975E-1,7.151613E-1,3.38192E-1,1.9402695E-1,7.3957324E-1,4.8918915E-1,1.3374174E0,0E0,6.7285156E-1,0E0,8.4232044E-1,2.2193146E-1,0E0,9.07097E-1,4.5032072E-1,1.3160769E0,1.6668205E0,8.340416E-1,0E0,0E0,0E0,0E0,0E0,0E0,0E0,0E0,0E0,0E0,0E0,0E0,0E0,0E0,0E0,0E0,0E0,0E0],"parents":[2147483647,0,0,1,1,2,2,3,3,4,4,5,5,6,6,9,9,11,11,13,13,14,14,17,17,18,18,19,19,20,20,21,21,22,22,23,23,25,25,27,27,28,28,30,30,31,31,32,32,33,33,34,34],"right_children":[2,4,6,8,10,12,14,-1,-1,16,-1,18,-1,20,22,-1,-1,24,26,28,30,32,34,36,-1,38,-1,40,42,-1,44,46,48,50,52,-1,-1,-1,-1,-1,-1,-1,-1,-1,-1,-1,-1,-1,-1,-1,-1,-1,-1],"split_conditions":[6.84E0,2.8776978E1,7.86E0,-9E-2,4E-2,7.76E0,1.1368E1,4.5329295E-3,-5.1237233E-2,1.6327831E5,-4.3121003E-2,4.9462364E1,3.728607E-2,5.1763E0,1.14605E1,-3.9904192E-2,8.885388E-2,1.4539436E5,3.9398744E5,-1.4E-1,2.2872E0,4.1541584E5,4.6066938E5,2.1978022E1,-5.9590813E-2,7.175E0,1.716832E-2,1.042E1,4.6233E0,-5.990972E-2,2.39E0,2.243532E5,-2E-2,1.645E1,3.9596E0,3.647747E-2,-4.42944E-2,-1.543791E-2,-4.533482E-2,-4.743178E-2,2.3984553E-2,-5.5624243E-2,-3.6427822E-2,1.3038421E-2,-5.402283E-2,9.091908E-3,-5.3152747E-2,6.297007E-2,-2.712054E-2,-5.1143494E-2,-2.3761405E-2,-2.9385809E-2,-5.7999235E-2],"split_indices":[0,16,1,5,5,2,15,0,0,7,0,16,0,11,15,0,0,8,8,5,6,7,8,16,0,14,0,0,11,0,6,7,5,14,11,0,0,0,0,0,0,0,0,0,0,0,0,0,0,0,0,0,0],"split_type":[0,0,0,0,0,0,0,0,0,0,0,0,0,0,0,0,0,0,0,0,0,0,0,0,0,0,0,0,0,0,0,0,0,0,0,0,0,0,0,0,0,0,0,0,0,0,0,0,0,0,0,0,0],"sum_hessian":[5.90525E2,1.0566381E1,5.799586E2,5.087856E0,5.4785256E0,9.334986E1,4.8660876E2,1.2503526E0,3.8375034E0,3.8617916E0,1.616734E0,9.195376E1,1.3961036E0,2.1840173E2,2.6820703E2,1.4872181E0,2.3745735E0,5.0108814E1,4.1844944E1,7.938916E1,1.3901257E2,1.0009284E1,2.5819775E2,1.8385332E1,3.1723482E1,3.9795204E1,2.049739E0,4.9979124E0,7.439125E1,1.3091014E2,8.102429E0,5.2108254E0,4.7984586E0,1.2722764E2,1.3097011E2,1.5592943E0,1.6826036E1,1.213777E1,2.7657434E1,2.9874425E0,2.01047E0,5.830035E1,1.60909E1,2.412716E0,5.6897135E0,1.170648E0,4.0401773E0,1.7277287E0,3.0707297E0,9.468283E1,3.2544804E1,1.4715602E1,1.1625452E2],"tree_param":{"num_deleted":"0","num_feature":"17","num_nodes":"53","size_leaf_vector":"1"}},{"base_weights":[1.6019915E-1,1.7000407E-1,-1.4090845E-1,1.571541E-1,4.0303734E-1,6.7270244E-4,-3.903993E-1,1.6646051E-1,-2.6222348E-1,6.416576E-1,1.0463317E-1,-1.2865059E-1,2.3946063E-1,4.6859127E-3,-4.619954E-1,1.4048898E-1,2.8322315E-1,-5.1025254E-1,1.4590557E-1,6.9717705E-1,4.4306875E-3,-3.1060826E-2,5.6198366E-2,-2.9435402E-1,1.8827295E-1,-1.811616E-2,6.7210905E-2,-5.5631854E-2,2.3736663E-3,1.2871769E-1,6.711053E-1,9.418991E-1,2.2368732E-1,-1.311476E-1,-6.6069685E-2,6.1096884E-2,-3.323265E-1,8.207242E-1,3.6962673E-1,2.454844E-1,-3.7630454E-1,-4.639845E-1,3.2816593E-2,4.6207722E-2,-1.6145758E-2,6.699023E-2,-4.835981E-2,1.358715E-2,-6.446837E-2,9.821127E-3,7.66095E-2,1.0086222E-1,3.0910457E-2,4.312477E-2,1.2372345E-2,-4.4546124E-2,1.7341135E-2,-3.0348084E-3,-4.721868E-2,3.5978325E-2,9.115171E-2,-4.683036E-2,6.454255E-2,-2.9757723E-2,5.518355E-2,-5.6062993E-2,-8.130081E-3,-2.0356388E-3,-5.631695E-2],"categories":[],"categories_nodes":[],"categories_segments":[],"categories_sizes":[],"default_left":[0,0,0,0,0,0,0,0,0,0,0,0,0,0,0,0,0,0,0,0,0,0,0,0,0,0,0,0,0,0,0,0,0,0,0,0,0,0,0,0,0,0,0,0,0,0,0,0,0,0,0,0,0,0,0,0,0,0,0,0,0,0,0,0,0,0,0,0,0],"id":22,"left_children":[1,3,5,7,9,11,13,15,17,19,21,23,25,-1,27,29,31,33,35,37,-1,39,-1,41,43,45,-1,-1,-1,47,49,51,53,55,-1,-1,57,59,61,63,65,67,-1,-1,-1,-1,-1,-1,-1,-1,-1,-1,-1,-1,-1,-1,-1,-1,-1,-1,-1,-1,-1,-1,-1,-1,-1,-1,-1],"loss_changes":[2.4084816E0,2.280304E0,9.192866E-1,2.9450397E0,2.799787E0,5.7420516E-1,3.165809E-1,2.167469E0,1.7474229E0,7.046242E-1,1.2018737E0,6.890246E-1,7.40043E-1,0E0,3.88322E-1,3.6450691E0,4.9443483E0,5.1232505E-1,1.7654154E0,5.150566E-1,0E0,1.5880873E0,0E0,1.0300874E0,5.2967614E-1,1.9469831E0,0E0,0E0,0E0,3.3280382E0,6.1741257E-1,1.351738E-1,2.4752865E0,4.822948E-1,0E0,0E0,1.593E-1,2.52326E-1,2.0027657E0,1.7120268E0,3.5475957E-1,2.9421318E-1,0E0,0E0,0E0,0E0,0E0,0E0,0E0,0E0,0E0,0E0,0E0,0E0,0E0,0E0,0E0,0E0,0E0,0E0,0E0,0E0,0E0,0E0,0E0,0E0,0E0,0E0,0E0],"parents":[2147483647,0,0,1,1,2,2,3,3,4,4,5,5,6,6,7,7,8,8,9,9,10,10,11,11,12,12,14,14,15,15,16,16,17,17,18,18,19,19,21,21,23,23,24,24,25,25,29,29,30,30,31,31,32,32,33,33,36,36,37,37,38,38,39,39,40,40,41,41],"right_children":[2,4,6,8,10,12,14,16,18,20,22,24,26,-1,28,30,32,34,36,38,-1,40,-1,42,44,46,-1,-1,-1,48,50,52,54,56,-1,-1,58,60,62,64,66,68,-1,-1,-1,-1,-1,-1,-1,-1,-1,-1,-1,-1,-1,-1,-1,-1,-1,-1,-1,-1,-1,-1,-1,-1,-1,-1,-1],"split_conditions":[1.793E1,1.7087E1,6.467066E1,1.67175E1,1.7621E1,5.5660378E1,1.802E1,1.14901E1,5.238095E1,1.7776E1,4.897959E1,1.8938E1,1.8144E1,4.6859127E-3,1.906E1,2.0077011E6,1.042E1,1.613E1,-4E-2,2.3E-1,4.4306875E-3,1.762E1,5.6198366E-2,1E-1,-1E-2,1.802E1,6.7210905E-2,-5.5631854E-2,2.3736663E-3,1.656E1,-4.2E-1,1.027E1,-3.797E-1,1.595E1,-6.6069685E-2,6.1096884E-2,1.735E1,1.634E1,3.7E-1,1.7166E1,1.746E1,4.225352E1,3.2816593E-2,4.6207722E-2,-1.6145758E-2,6.699023E-2,-4.835981E-2,1.358715E-2,-6.446837E-2,9.821127E-3,7.66095E-2,1.0086222E-1,3.0910457E-2,4.312477E-2,1.2372345E-2,-4.4546124E-2,1.7341135E-2,-3.0348084E-3,-4.721868E-2,3.5978325E-2,9.115171E-2,-4.683036E-2,6.454255E-2,-2.9757723E-2,5.518355E-2,-5.6062993E-2,-8.130081E-3,-2.0356388E-3,-5.631695E-2],"split_indices":[0,15,16,15,15,16,3,11,16,13,16,15,14,0,4,7,1,2,5,5,0,1,0,5,5,3,0,0,0,1,5,3,6,0,0,0,1,4,5,13,2,16,0,0,0,0,0,0,0,0,0,0,0,0,0,0,0,0,0,0,0,0,0,0,0,0,0,0,0],"split_type":[0,0,0,0,0,0,0,0,0,0,0,0,0,0,0,0,0,0,0,0,0,0,0,0,0,0,0,0,0,0,0,0,0,0,0,0,0,0,0,0,0,0,0,0,0,0,0,0,0,0,0,0,0,0,0,0,0,0,0,0,0,0,0,0,0,0,0,0,0],"sum_hessian":[8.066741E2,7.816565E2,2.501757E1,7.423936E2,3.9262833E1,1.6596619E1,8.420951E0,7.268668E2,1.552682E1,2.1177696E1,1.8085138E1,1.1065161E1,5.531459E0,1.2334449E0,7.1875057E0,5.964104E2,1.3045642E2,9.502014E0,6.0248065E0,1.922386E1,1.9538352E0,1.4665909E1,3.4192293E0,7.3128514E0,3.752309E0,4.067816E0,1.4636431E0,5.897052E0,1.2904537E0,5.8468225E2,1.1728127E1,9.5855665E0,1.2087086E2,3.2312682E0,6.2707458E0,2.9137416E0,3.111065E0,1.2865531E1,6.35833E0,8.303576E0,6.362332E0,5.9470162E0,1.3658354E0,1.9244319E0,1.827877E0,1.4643035E0,2.6035125E0,5.801404E2,4.5418673E0,1.9573048E0,9.770822E0,8.1339855E0,1.4515803E0,3.821304E1,8.265782E1,1.3624927E0,1.8687754E0,1.3700086E0,1.7410562E0,2.9337974E0,9.931733E0,1.4017003E0,4.9566298E0,3.005116E0,5.298461E0,3.361543E0,3.0007887E0,1.306888E0,4.640128E0],"tree_param":{"num_deleted":"0","num_feature":"17","num_nodes":"69","size_leaf_vector":"1"}},{"base_weights":[2.0265803E-1,1.9048731E-1,5.0927335E-1,1.4752333E-1,2.4566406E-1,2.300441E-1,5.764363E-1,9.559559E-2,2.3423912E-1,9.6523054E-2,2.775896E-1,-4.823911E-2,5.2715135E-1,7.432376E-1,3.584638E-1,2.0246705E-1,-1.2684924E-2,-5.743421E-2,2.532258E-1,-5.6297492E-2,1.3616306E-1,3.416355E-1,1.894873E-1,2.7746543E-1,6.7393854E-2,7.9809375E-2,1.903001E-2,-4.3504585E-2,4.9483135E-1,1.6663015E-1,6.423268E-1,-3.0435193E-1,3.2682087E-2,8.7334305E-1,2.2692916E-1,1.00033715E-1,7.6044306E-2,3.166836E-1,7.183458E-1,-5.4909766E-2,2.5259176E-1,5.317342E-2,-1.0118022E-2,-6.3656284E-3,5.830561E-1,1.2871133E-3,2.3688056E-2,8.369023E-2,-9.062119E-6,-5.2783843E-2,-1.2958996E-2,6.210052E-3,-5.2823465E-2,9.704762E-2,3.211778E-2,2.8006835E-2,-2.8531242E-3,-2.7256494E-2,1.9935621E-2,2.6505891E-2,5.007381E-2,8.855506E-2,-1.101133E-2,-2.0349486E-2,4.8570815E-2,4.4979732E-2,1.8280743E-2,1.3947017E-2,8.340259E-2],"categories":[],"categories_nodes":[],"categories_segments":[],"categories_sizes":[],"default_left":[0,0,0,0,0,0,0,0,0,0,0,0,0,0,0,0,0,0,0,0,0,0,0,0,0,0,0,0,0,0,0,0,0,0,0,0,0,0,0,0,0,0,0,0,0,0,0,0,0,0,0,0,0,0,0,0,0,0,0,0,0,0,0,0,0,0,0,0,0],"id":23,"left_children":[1,3,5,7,9,11,13,15,17,19,21,-1,23,25,27,29,31,-1,33,-1,35,37,39,41,-1,-1,-1,-1,43,45,47,49,51,53,55,-1,57,59,61,63,65,-1,-1,-1,67,-1,-1,-1,-1,-1,-1,-1,-1,-1,-1,-1,-1,-1,-1,-1,-1,-1,-1,-1,-1,-1,-1,-1,-1],"loss_changes":[2.9624863E0,1.836916E0,4.4320154E-1,1.9892855E0,1.6130905E0,1.8666389E0,6.093006E-1,3.2556095E0,2.7036724E0,1.7042758E0,1.5329762E0,0E0,2.7534604E-2,2.3373461E-1,1.5541505E0,2.124013E0,1.8700562E0,0E0,2.468113E0,0E0,3.0169425E0,1.301981E0,1.886733E0,4.261007E-1,0E0,0E0,0E0,0E0,5.804119E-1,1.4251709E0,1.2891035E0,6.74438E-1,2.0551443E0,2.622366E-2,2.1556282E0,0E0,2.4936597E0,1.3343058E0,1.3884988E0,2.1666584E0,1.2484684E0,0E0,0E0,0E0,9.547069E-1,0E0,0E0,0E0,0E0,0E0,0E0,0E0,0E0,0E0,0E0,0E0,0E0,0E0,0E0,0E0,0E0,0E0,0E0,0E0,0E0,0E0,0E0,0E0,0E0],"parents":[2147483647,0,0,1,1,2,2,3,3,4,4,5,5,6,6,7,7,8,8,9,9,10,10,12,12,13,13,14,14,15,15,16,16,18,18,20,20,21,21,22,22,23,23,28,28,29,29,30,30,31,31,32,32,33,33,34,34,36,36,37,37,38,38,39,39,40,40,44,44],"right_children":[2,4,6,8,10,12,14,16,18,20,22,-1,24,26,28,30,32,-1,34,-1,36,38,40,42,-1,-1,-1,-1,44,46,48,50,52,54,56,-1,58,60,62,64,66,-1,-1,-1,68,-1,-1,-1,-1,-1,-1,-1,-1,-1,-1,-1,-1,-1,-1,-1,-1,-1,-1,-1,-1,-1,-1,-1,-1],"split_conditions":[1.793E1,2E-2,1.819E1,3.669071E5,2.0161028E7,1.76805E1,1.8144E1,4.342105E1,7E0,1.442E1,8.357E-1,-4.823911E-2,-5E-2,1.87E1,1.839E1,4.1739132E1,4.6258503E1,-5.743421E-2,3.7682875E5,-5.6297492E-2,1.498E1,7.585E-1,1.01E0,1.772E1,6.7393854E-2,7.9809375E-2,1.903001E-2,-4.3504585E-2,-6E-1,8.624E0,2.3580345E5,-6.836E-1,3.4816997E5,6.2311558E1,1.46635E1,1.00033715E-1,1.58E1,1.266E1,6.2589928E1,4.8194628E5,1.23E0,5.317342E-2,-1.0118022E-2,-6.3656284E-3,1.8752E1,1.2871133E-3,2.3688056E-2,8.369023E-2,-9.062119E-6,-5.2783843E-2,-1.2958996E-2,6.210052E-3,-5.2823465E-2,9.704762E-2,3.211778E-2,2.8006835E-2,-2.8531242E-3,-2.7256494E-2,1.9935621E-2,2.6505891E-2,5.007381E-2,8.855506E-2,-1.101133E-2,-2.0349486E-2,4.8570815E-2,4.4979732E-2,1.8280743E-2,1.3947017E-2,8.340259E-2],"split_indices":[0,5,1,7,9,15,14,16,2,3,6,0,5,3,4,16,16,0,7,0,1,6,6,2,0,0,0,0,5,13,7,6,7,16,15,0,1,1,16,7,6,0,0,0,14,0,0,0,0,0,0,0,0,0,0,0,0,0,0,0,0,0,0,0,0,0,0,0,0],"split_type":[0,0,0,0,0,0,0,0,0,0,0,0,0,0,0,0,0,0,0,0,0,0,0,0,0,0,0,0,0,0,0,0,0,0,0,0,0,0,0,0,0,0,0,0,0,0,0,0,0,0,0,0,0,0,0,0,0,0,0,0,0,0,0,0,0,0,0,0,0],"sum_hessian":[8.188613E2,7.8915796E2,2.970337E1,4.4574625E2,3.434117E2,6.6172748E0,2.3086094E1,2.801108E2,1.6563544E2,6.125951E1,2.821522E2,1.7639242E0,4.85335E0,1.1713034E1,1.137306E1,1.4053488E2,1.3957594E2,3.129065E0,1.6250638E2,2.7247727E0,5.8534737E1,1.6171552E2,1.2043668E2,2.866934E0,1.9864162E0,1.0252524E1,1.4605094E0,1.3466707E0,1.002639E1,1.3122255E2,9.312329E0,1.8019423E1,1.2155652E2,5.300516E0,1.5720586E2,2.7900434E0,5.5744694E1,1.533958E2,8.319714E0,2.4742275E1,9.5694405E1,1.4732856E0,1.3936485E0,1.4057932E0,8.620597E0,4.1523067E1,8.969948E1,6.915133E0,2.3971965E0,7.020827E0,1.0998596E1,1.1634391E2,5.212608E0,3.8633237E0,1.4371926E0,1.3005612E2,2.714974E1,1.4249692E1,4.1495003E1,1.2170061E2,3.1695185E1,6.86522E0,1.454494E0,1.9897243E1,4.8450317E0,2.3588749E1,7.210566E1,3.6770976E0,4.943499E0],"tree_param":{"num_deleted":"0","num_feature":"17","num_nodes":"69","size_leaf_vector":"1"}},{"base_weights":[-4.8524106E-1,-1.22441664E-1,-4.9177063E-1,-3.799358E-1,1.3531555E-1,-4.1013855E-1,-5.066871E-1,-5.0204117E-2,4.4283047E-3,4.008969E-1,-4.1897207E-2,-4.262494E-1,3.6411304E-2,-5.45811E-1,-4.7299102E-1,-3.9046183E-2,8.523949E-2,-5.0476575E-1,-3.2320717E-1,-4.9268153E-1,-5.7855844E-1,-1.5681727E-1,-4.8483235E-1,-3.4450603E-1,-5.846851E-2,-3.780028E-1,-1.1086717E-2,-5.111366E-1,4.0959492E-2,-5.8544096E-2,-1.9622707E-1,3.264485E-2,-2.7678648E-1,-3.400145E-1,-5.035707E-1,3.5437368E-2,-4.2879347E-2,-3.7598223E-3,-4.531271E-2,5.3861897E-2,-3.3563595E-2,-1.2596403E-2,-5.504446E-2,-4.0262382E-2,5.8362223E-2,1.3964332E-2,-3.883601E-2,-4.3725397E-2,2.6467448E-2,-4.6557467E-2,2.0288525E-2,-4.3395963E-2,-5.7295144E-2],"categories":[],"categories_nodes":[],"categories_segments":[],"categories_sizes":[],"default_left":[0,0,0,0,0,0,0,0,0,0,0,0,0,0,0,0,0,0,0,0,0,0,0,0,0,0,0,0,0,0,0,0,0,0,0,0,0,0,0,0,0,0,0,0,0,0,0,0,0,0,0,0,0],"id":24,"left_children":[1,3,5,7,9,11,13,-1,-1,15,-1,17,-1,19,21,-1,-1,23,25,27,29,31,33,35,-1,37,39,41,43,-1,45,-1,47,49,51,-1,-1,-1,-1,-1,-1,-1,-1,-1,-1,-1,-1,-1,-1,-1,-1,-1,-1],"loss_changes":[1.287323E0,8.0727035E-1,4.721985E-1,3.309422E-1,1.1143194E0,1.2969065E0,3.5871887E-1,0E0,0E0,2.0683064E0,0E0,5.6599426E-1,0E0,8.0379486E-2,8.932533E-1,0E0,0E0,4.3087482E-1,7.0992804E-1,8.760414E-1,2.1194458E-1,7.1791625E-1,5.0468063E-1,1.2630303E0,0E0,8.904991E-1,1.4770573E0,1.2024441E0,1.156492E0,0E0,2.9302758E-1,0E0,9.161973E-1,2.2495298E0,8.064461E-1,0E0,0E0,0E0,0E0,0E0,0E0,0E0,0E0,0E0,0E0,0E0,0E0,0E0,0E0,0E0,0E0,0E0,0E0],"parents":[2147483647,0,0,1,1,2,2,3,3,4,4,5,5,6,6,9,9,11,11,13,13,14,14,17,17,18,18,19,19,20,20,21,21,22,22,23,23,25,25,26,26,27,27,28,28,30,30,32,32,33,33,34,34],"right_children":[2,4,6,8,10,12,14,-1,-1,16,-1,18,-1,20,22,-1,-1,24,26,28,30,32,34,36,-1,38,40,42,44,-1,46,-1,48,50,52,-1,-1,-1,-1,-1,-1,-1,-1,-1,-1,-1,-1,-1,-1,-1,-1,-1,-1],"split_conditions":[6.84E0,2.8776978E1,7.86E0,2.234251E5,4E-2,7.76E0,1.1368E1,-5.0204117E-2,4.4283047E-3,1.6327831E5,-4.1897207E-2,4.9462364E1,3.6411304E-2,4.4871796E1,1.14605E1,-3.9046183E-2,8.523949E-2,1.4539436E5,6.3866E0,4.408602E1,1.202E1,2.019043E7,3.9596E0,2.1978022E1,-5.846851E-2,-4E-2,5.423729E1,1.7234614E5,1.0207E1,-5.8544096E-2,1.202E1,3.264485E-2,6.660891E5,7.716573E5,4.8526725E5,3.5437368E-2,-4.2879347E-2,-3.7598223E-3,-4.531271E-2,5.3861897E-2,-3.3563595E-2,-1.2596403E-2,-5.504446E-2,-4.0262382E-2,5.8362223E-2,1.3964332E-2,-3.883601E-2,-4.3725397E-2,2.6467448E-2,-4.6557467E-2,2.0288525E-2,-4.3395963E-2,-5.7295144E-2],"split_indices":[0,16,1,8,5,2,15,0,0,7,0,16,0,16,15,0,0,8,11,16,3,9,11,16,0,5,16,8,15,0,0,0,7,8,8,0,0,0,0,0,0,0,0,0,0,0,0,0,0,0,0,0,0],"split_type":[0,0,0,0,0,0,0,0,0,0,0,0,0,0,0,0,0,0,0,0,0,0,0,0,0,0,0,0,0,0,0,0,0,0,0,0,0,0,0,0,0,0,0,0,0,0,0,0,0,0,0,0,0],"sum_hessian":[5.678433E2,1.0388401E1,5.574549E2,4.9597282E0,5.4286723E0,9.0527725E1,4.669272E2,3.7087646E0,1.2509637E0,3.8572464E0,1.5714262E0,8.91227E1,1.4050233E0,2.0902913E2,2.5789804E2,1.4503481E0,2.4068983E0,4.83683E1,4.0754402E1,8.582745E1,1.23201675E2,9.8242855E0,2.4807378E2,1.786162E1,3.0506681E1,3.448854E1,6.265862E0,8.2999245E1,2.8282099E0,1.2050124E2,2.7004356E0,1.6115321E0,8.212753E0,3.061477E1,2.17459E2,1.5774715E0,1.6284147E1,6.5065265E0,2.7982014E1,2.0812132E0,4.184649E0,8.075299E0,7.492395E1,1.6981593E0,1.1300504E0,1.0820624E0,1.6183734E0,6.4836984E0,1.7290548E0,2.497992E1,5.6348505E0,1.12170715E2,1.05288284E2],"tree_param":{"num_deleted":"0","num_feature":"17","num_nodes":"53","size_leaf_vector":"1"}},{"base_weights":[1.4963527E-1,1.6163671E-1,-8.298679E-2,1.383658E-1,2.7279532E-1,-3.360269E-1,1.2419801E-1,1.524834E-1,-1.3215648E-1,8.578077E-1,2.3395826E-1,9.214219E-2,-5.2639306E-1,2.2208221E-1,-3.373805E-1,1.2643112E-1,2.7147505E-1,5.3337115E-1,-2.4230161E-1,9.335387E-2,3.097397E-2,4.611733E-1,1.5496653E-1,5.6703765E-2,-3.2530567E-1,-6.632302E-2,1.8833412E-2,-2.8667992E-2,3.0896652E-1,-4.9242727E-2,2.1953003E-3,1.3523154E-1,-2.6152945E-1,2.0529087E-1,5.1487714E-1,7.452705E-2,1.3434219E-2,-3.3687985E-1,2.5217098E-1,5.4997486E-1,-3.4328866E-1,-1.3327259E-1,2.8646582E-1,-4.7953736E-2,-2.7275883E-4,6.5975535E-1,9.352518E-2,1.1795123E-2,4.161945E-2,-5.127705E-2,2.729609E-2,3.495584E-2,-1.9959193E-3,6.658857E-2,-3.1300317E-3,4.271657E-2,-4.0001567E-2,-1.4440851E-2,5.1214963E-2,9.190215E-2,3.839713E-2,-4.6053424E-2,-8.391462E-3,7.282792E-3,-3.8313363E-2,4.5997925E-2,-1.0312615E-2,1.630553E-2,8.327988E-2,-1.4709273E-2,4.4434544E-2],"categories":[],"categories_nodes":[],"categories_segments":[],"categories_sizes":[],"default_left":[0,0,0,0,0,0,0,0,0,0,0,0,0,0,0,0,0,0,0,0,0,0,0,0,0,0,0,0,0,0,0,0,0,0,0,0,0,0,0,0,0,0,0,0,0,0,0,0,0,0,0,0,0,0,0,0,0,0,0,0,0,0,0,0,0,0,0,0,0,0,0],"id":25,"left_children":[1,3,5,7,9,11,13,15,17,19,21,23,25,27,29,31,33,35,37,-1,-1,39,41,-1,43,-1,-1,-1,45,-1,-1,47,49,51,53,-1,-1,55,57,59,61,63,65,-1,-1,67,69,-1,-1,-1,-1,-1,-1,-1,-1,-1,-1,-1,-1,-1,-1,-1,-1,-1,-1,-1,-1,-1,-1,-1,-1],"loss_changes":[2.2740211E0,1.9549503E0,2.159058E0,2.4606504E0,2.805729E0,1.5524471E0,1.1111841E0,1.8498306E0,2.4918377E0,3.719139E-2,2.1803255E0,1.4789488E0,1.3886485E0,9.516813E-1,2.56495E-1,1.7441568E0,1.6389055E0,3.1326354E-1,1.4103513E0,0E0,0E0,2.464726E0,3.6239102E0,0E0,2.0319769E-1,0E0,0E0,0E0,1.2350731E0,0E0,0E0,2.3301697E0,1.6764789E0,2.8279293E0,1.8756819E0,0E0,0E0,1.3391438E0,6.0208225E-1,1.4284134E0,7.6393366E-2,1.589292E0,4.460459E0,0E0,0E0,4.1115665E-1,1.0610539E0,0E0,0E0,0E0,0E0,0E0,0E0,0E0,0E0,0E0,0E0,0E0,0E0,0E0,0E0,0E0,0E0,0E0,0E0,0E0,0E0,0E0,0E0,0E0,0E0],"parents":[2147483647,0,0,1,1,2,2,3,3,4,4,5,5,6,6,7,7,8,8,9,9,10,10,11,11,12,12,13,13,14,14,15,15,16,16,17,17,18,18,21,21,22,22,24,24,28,28,31,31,32,32,33,33,34,34,37,37,38,38,39,39,40,40,41,41,42,42,45,45,46,46],"right_children":[2,4,6,8,10,12,14,16,18,20,22,24,26,28,30,32,34,36,38,-1,-1,40,42,-1,44,-1,-1,-1,46,-1,-1,48,50,52,54,-1,-1,56,58,60,62,64,66,-1,-1,68,70,-1,-1,-1,-1,-1,-1,-1,-1,-1,-1,-1,-1,-1,-1,-1,-1,-1,-1,-1,-1,-1,-1,-1,-1],"split_conditions":[7.419355E1,6.1827957E1,7.703704E1,5.9292034E1,1.3713495E5,1.087E1,2.49E0,5.2542374E1,1.5772556E5,6.929825E1,6.432161E1,7.5118484E1,2.019103E7,2.0048925E5,1.2192364E6,1.7776E1,7.8E-1,-1E-2,6.8949344E5,9.335387E-2,3.097397E-2,2.4E-1,6.6726944E1,5.6703765E-2,9.72E0,-6.632302E-2,1.8833412E-2,-2.8667992E-2,3.63014E5,-4.9242727E-2,2.1953003E-3,1.7087E1,1.8938E1,2.947639E5,7.9184356E5,7.452705E-2,1.3434219E-2,7.03E0,1.548E1,3.7054972E5,3.8E-1,4.044348E5,1.28895E1,-4.7953736E-2,-2.7275883E-4,1.184E1,1.0942688E6,1.1795123E-2,4.161945E-2,-5.127705E-2,2.729609E-2,3.495584E-2,-1.9959193E-3,6.658857E-2,-3.1300317E-3,4.271657E-2,-4.0001567E-2,-1.4440851E-2,5.1214963E-2,9.190215E-2,3.839713E-2,-4.6053424E-2,-8.391462E-3,7.282792E-3,-3.8313363E-2,4.5997925E-2,-1.0312615E-2,1.630553E-2,8.327988E-2,-1.4709273E-2,4.4434544E-2],"split_indices":[16,16,16,16,7,13,6,16,7,16,16,16,9,7,8,13,6,5,8,0,0,5,16,0,0,0,0,0,7,0,0,15,15,7,7,0,0,0,0,8,5,7,15,0,0,2,7,0,0,0,0,0,0,0,0,0,0,0,0,0,0,0,0,0,0,0,0,0,0,0,0],"split_type":[0,0,0,0,0,0,0,0,0,0,0,0,0,0,0,0,0,0,0,0,0,0,0,0,0,0,0,0,0,0,0,0,0,0,0,0,0,0,0,0,0,0,0,0,0,0,0,0,0,0,0,0,0,0,0,0,0,0,0,0,0,0,0,0,0,0,0,0,0,0,0],